-3.687891066074371338e-01
-4.083759486675262451e-01
-1.074622571468353271e-01
1.114165782928466797e-02
-1.611464619636535645e-01
2.215215191245079041e-02
1.555389352142810822e-02
-2.969579100608825684e-01
-2.660049200057983398e-01
2.893163263797760010e-02
-5.809387192130088806e-02
2.228654623031616211e-01
2.727842926979064941e-01
1.134556904435157776e-01
-1.513645648956298828e-01
2.070558518171310425e-01
-1.472706049680709839e-01
9.472603350877761841e-02
-1.624795496463775635e-01
2.516106069087982178e-01
1.088560521602630615e-01
-4.081064462661743164e-01
-3.718950152397155762e-01
4.013001918792724609e-01
-3.339836895465850830e-01
3.969462588429450989e-02
-8.378844708204269409e-02
1.824366748332977295e-01
-5.322760343551635742e-02
-1.828741729259490967e-01
-2.295582890510559082e-01
1.880892962217330933e-01
1.615290492773056030e-01
5.529599636793136597e-02
-3.577367663383483887e-01
2.079651504755020142e-02
-2.699961662292480469e-01
-2.257657498121261597e-01
2.084132283926010132e-01
1.412859857082366943e-01
-6.673339009284973145e-02
-1.072588469833135605e-02
9.546467103064060211e-03
-1.757423132658004761e-01
1.557448059320449829e-01
-9.373003616929054260e-03
2.151157259941101074e-01
1.235602796077728271e-01
7.140084356069564819e-02
3.183744102716445923e-02
1.716263145208358765e-01
4.616875573992729187e-02
-6.978731602430343628e-02
-1.374576799571514130e-02
1.103657111525535583e-01
7.042600959539413452e-02
2.559332177042961121e-02
-9.930916130542755127e-04
-3.171811625361442566e-02
-6.904796510934829712e-02
2.312025874853134155e-01
-1.473682280629873276e-02
-3.681878149509429932e-01
-2.865286171436309814e-01
-1.382871624082326889e-02
3.868075311183929443e-01
-4.728341475129127502e-02
-1.532520204782485962e-01
5.700219422578811646e-02
-1.148995906114578247e-01
-8.455345779657363892e-02
1.215063873678445816e-02
5.625836178660392761e-02
-2.418014407157897949e-01
7.564024627208709717e-02
-6.070333719253540039e-02
-9.471561014652252197e-02
-3.995870426297187805e-02
1.441927105188369751e-01
-2.753090113401412964e-02
-3.220839425921440125e-04
1.392095685005187988e-01
9.564489871263504028e-02
1.047446131706237793e-01
2.451682388782501221e-01
3.427069187164306641e-01
-1.974271833896636963e-01
1.376742962747812271e-02
5.813539400696754456e-02
3.070752508938312531e-02
2.971821092069149017e-02
-2.237880527973175049e-01
2.303855121135711670e-02
-2.653121054172515869e-01
3.993966579437255859e-01
3.507697954773902893e-02
1.744828224182128906e-01
1.553891897201538086e-01
-4.944656044244766235e-02
-4.018769785761833191e-02
7.332679629325866699e-02
-3.573988331481814384e-03
6.776967644691467285e-02
-5.739947780966758728e-02
-8.653184771537780762e-02
-1.261515170335769653e-01
-6.507950276136398315e-02
2.080882191658020020e-01
-8.977323770523071289e-03
1.398960202932357788e-01
-5.769991502165794373e-02
2.375647276639938354e-01
2.630535364151000977e-01
-3.000481799244880676e-02
8.101648837327957153e-02
6.427682936191558838e-02
1.015097051858901978e-01
-1.393963843584060669e-01
-1.162650808691978455e-01
-1.214812546968460083e-01
-6.377156823873519897e-02
5.291016101837158203e-01
-2.578832507133483887e-01
-3.043723702430725098e-01
-5.004229396581649780e-02
-1.264701634645462036e-01
1.035787258297204971e-02
-7.839724421501159668e-02
-5.778630450367927551e-02
4.503739997744560242e-02
3.117547929286956787e-01
-9.264729917049407959e-02
-2.119713723659515381e-01
7.051841169595718384e-02
-1.077729314565658569e-01
-5.037795752286911011e-02
-5.477914959192276001e-02
-9.492711164057254791e-03
8.319432288408279419e-02
2.661614120006561279e-02
-1.433717310428619385e-01
-2.128160744905471802e-01
1.352019309997558594e-01
1.650264370255172253e-03
9.565934538841247559e-02
-7.362715899944305420e-02
-2.535449154675006866e-02
-5.988406017422676086e-02
7.621272653341293335e-02
9.572349488735198975e-02
-6.242117658257484436e-02
-1.861464697867631912e-03
4.597359597682952881e-01
3.498396277427673340e-02
1.257272362709045410e-01
2.277666777372360229e-01
9.324388951063156128e-02
-1.435212697833776474e-02
-3.700403571128845215e-01
-1.794235706329345703e-01
-2.312394380569458008e-01
-3.234497904777526855e-01
-2.081780135631561279e-01
-1.595173627138137817e-01
-1.680087149143218994e-01
1.962033361196517944e-01
-3.041634559631347656e-01
2.083441764116287231e-01
-2.372780442237854004e-02
3.402602076530456543e-01
4.855193197727203369e-01
-2.893988788127899170e-01
1.353488489985466003e-02
-7.633046060800552368e-02
1.628077030181884766e-01
3.017231225967407227e-01
-2.059671431779861450e-01
-3.132325038313865662e-02
-1.802500337362289429e-01
4.527900516986846924e-01
-8.415906876325607300e-02
4.159865677356719971e-01
3.673208057880401611e-01
5.920532345771789551e-02
-2.124560326337814331e-01
3.934769704937934875e-02
-3.404946299269795418e-03
-3.014230728149414062e-01
1.460306495428085327e-01
1.058199554681777954e-01
2.896484434604644775e-01
1.216856986284255981e-01
-1.997718513011932373e-01
-7.861579768359661102e-03
-3.210626840591430664e-01
-1.987992972135543823e-01
-1.709848195314407349e-01
-1.389464139938354492e-01
1.171996742486953735e-01
4.309516027569770813e-02
-1.349992007017135620e-01
-9.299350529909133911e-02
-1.866307705640792847e-01
2.356660813093185425e-01
3.659687936305999756e-01
-2.105023115873336792e-01
-1.350947469472885132e-01
-1.204487681388854980e-01
-2.006559669971466064e-01
-8.621824532747268677e-02
-2.807342708110809326e-01
-1.595966145396232605e-02
6.010828018188476562e-01
-4.028057754039764404e-01
4.872629642486572266e-01
7.997406274080276489e-02
2.907857671380043030e-02
3.426624462008476257e-02
-1.712094061076641083e-02
-2.484655231237411499e-01
1.251705437898635864e-01
-7.253931462764739990e-02
1.203300547786056995e-03
5.924375355243682861e-02
2.243756949901580811e-01
-6.631767749786376953e-02
-1.921999603509902954e-01
2.364408224821090698e-02
1.822649985551834106e-01
-1.273558288812637329e-01
1.240207403898239136e-01
-1.719768047332763672e-01
1.776197701692581177e-01
1.626031249761581421e-01
-1.645046025514602661e-01
-1.349281072616577148e-01
-1.988866478204727173e-01
-1.929381638765335083e-01
-2.977270185947418213e-01
-1.720430999994277954e-01
-8.275108039379119873e-02
-3.194930776953697205e-02
-2.052841708064079285e-02
1.016898602247238159e-01
-1.364313960075378418e-01
-4.153485596179962158e-02
-5.235477164387702942e-02
-9.419676661491394043e-02
-5.935329571366310120e-02
1.807196736335754395e-01
-6.452001631259918213e-02
-8.591829240322113037e-02
-8.276662975549697876e-02
-1.808977127075195312e-01
-2.934116721153259277e-01
1.936588883399963379e-01
4.868399817496538162e-03
2.413366287946701050e-01
-1.215917468070983887e-01
-3.676330745220184326e-01
2.580053806304931641e-01
-1.552198641002178192e-02
-1.675231903791427612e-01
2.164260298013687134e-01
-1.196326166391372681e-01
-5.079205334186553955e-02
-4.907140508294105530e-02
-1.016009077429771423e-01
-1.646918654441833496e-01
1.358119249343872070e-01
-1.195236369967460632e-01
6.169151142239570618e-02
-1.062587425112724304e-01
-2.327284812927246094e-01
2.068566977977752686e-01
2.287043482065200806e-01
1.568526029586791992e-02
-2.028946429491043091e-01
-3.653719648718833923e-02
2.253000587224960327e-01
-1.820958554744720459e-01
-2.472857385873794556e-02
2.779932618141174316e-01
1.650259941816329956e-01
-1.278203576803207397e-01
1.828335523605346680e-01
2.488598525524139404e-01
1.756300628185272217e-01
-8.857369422912597656e-02
3.076944053173065186e-01
-2.002907395362854004e-01
2.199047356843948364e-01
