1.782022565603256226e-01
-2.676135860383510590e-02
-1.847198465839028358e-03
1.386060757795348763e-04
1.769861727952957153e-01
2.120410799980163574e-01
-4.962969943881034851e-02
1.079708263278007507e-01
-1.731807948090136051e-03
1.442748606204986572e-01
-9.388749301433563232e-02
-7.046737670898437500e-01
1.115457341074943542e-01
-4.984231200069189072e-03
1.536965519189834595e-01
9.528186917304992676e-02
-4.067784175276756287e-02
-1.766937971115112305e-02
-1.888308376073837280e-01
8.635925501585006714e-02
4.623842984437942505e-02
9.786536544561386108e-02
-8.569576777517795563e-03
-4.225822389125823975e-01
4.186697304248809814e-02
3.833236396312713623e-01
9.208562225103378296e-02
-2.269146265462040901e-03
9.394526481628417969e-03
-1.424553543329238892e-01
9.166654781438410282e-04
-1.188332680612802505e-02
2.854363322257995605e-01
9.086471796035766602e-02
-2.853366918861865997e-02
1.637071371078491211e-03
-1.656133495271205902e-02
2.105714827775955200e-01
-1.959369778633117676e-01
-9.797739386558532715e-01
-1.960245659574866295e-03
2.220620214939117432e-02
-2.474923245608806610e-02
1.127415001392364502e-01
5.121208727359771729e-02
4.486192762851715088e-02
-4.147698730230331421e-02
-5.389442667365074158e-02
3.658987581729888916e-02
5.959174782037734985e-02
8.034250698983669281e-03
-3.640389814972877502e-02
1.202382668852806091e-01
-2.398873679339885712e-02
-5.651397258043289185e-02
1.495196111500263214e-02
7.992701604962348938e-03
2.684353105723857880e-02
-8.569438010454177856e-02
3.969449549913406372e-02
-1.521545201539993286e-01
-4.710005305241793394e-04
-3.366626799106597900e-02
4.312983527779579163e-02
3.898277878761291504e-02
7.079312205314636230e-02
-5.561075173318386078e-03
-2.519667148590087891e-01
1.838188320398330688e-01
7.139558438211679459e-03
-6.763619929552078247e-02
2.029043883085250854e-01
1.963140629231929779e-02
7.270738016813993454e-03
-4.167445003986358643e-02
-6.268142908811569214e-02
1.699758619070053101e-01
-1.819111593067646027e-02
8.907195180654525757e-03
-2.691222354769706726e-02
-8.350577950477600098e-02
9.957615984603762627e-04
2.124422490596771240e-01
-1.510663796216249466e-02
2.873561345040798187e-02
-3.144478797912597656e-02
3.369845217093825340e-03
6.387913972139358521e-02
9.281567484140396118e-02
-8.824073709547519684e-03
1.695507168769836426e-01
-1.886945068836212158e-01
7.275826483964920044e-02
-7.547184079885482788e-02
-2.290092408657073975e-01
-3.228354752063751221e-01
-1.933230832219123840e-02
2.297782804816961288e-03
8.723565191030502319e-02
1.040698885917663574e-01
2.552483975887298584e-02
4.899062216281890869e-03
1.448156032711267471e-02
9.838221222162246704e-02
-6.050177291035652161e-02
-1.320376396179199219e-01
7.448178250342607498e-03
2.514824867248535156e-01
1.404390018433332443e-02
4.132248163223266602e-01
-1.998824179172515869e-01
-1.645106263458728790e-02
2.381241321563720703e-02
2.036174982786178589e-01
1.577390125021338463e-03
7.476408779621124268e-02
8.009267598390579224e-02
6.995980441570281982e-02
1.465429812669754028e-01
9.660541266202926636e-02
1.278142035007476807e-01
1.981711983680725098e-01
2.962167933583259583e-02
2.474939376115798950e-01
8.951385319232940674e-02
1.910361647605895996e-02
8.154065161943435669e-02
-5.336240679025650024e-02
2.056050859391689301e-02
-4.741542506963014603e-03
1.385546326637268066e-01
7.746841758489608765e-02
1.590201407670974731e-01
6.105231121182441711e-02
-1.672421954572200775e-02
1.256803870201110840e-01
-1.914031505584716797e-01
3.210550546646118164e-01
4.815676063299179077e-02
1.545346528291702271e-02
-2.862965874373912811e-02
7.439339160919189453e-02
-1.087454333901405334e-02
-6.058316305279731750e-02
-1.110243722796440125e-01
-5.866283318027853966e-04
5.203827098011970520e-02
-3.225995600223541260e-02
-6.503921002149581909e-02
1.583253592252731323e-01
-1.465140879154205322e-01
3.470490872859954834e-01
-2.437782734632492065e-01
-8.920473977923393250e-03
1.332737356424331665e-01
8.390364050865173340e-02
6.252719904296100140e-04
1.162853837013244629e-02
-3.125089779496192932e-02
-6.807862222194671631e-02
1.121650710701942444e-01
-1.006860136985778809e-01
1.173332054167985916e-02
-4.745199531316757202e-02
-7.329544425010681152e-02
-3.126449137926101685e-02
-1.304672658443450928e-01
2.355116419494152069e-03
2.233212143182754517e-01
5.029450356960296631e-02
6.813900079578161240e-03
-3.153416328132152557e-03
1.578351259231567383e-01
1.796895414590835571e-01
-4.355438053607940674e-03
-3.254919126629829407e-02
7.517968770116567612e-03
1.107006594538688660e-01
2.059743255376815796e-01
2.597134709358215332e-01
-1.404847055673599243e-01
-3.297296061646193266e-04
-1.413965672254562378e-01
1.561887115240097046e-01
-2.376409247517585754e-02
-2.827671915292739868e-02
1.046259477734565735e-01
-6.432729214429855347e-02
1.823931783437728882e-01
1.613398492336273193e-01
-2.119453437626361847e-02
-1.031992491334676743e-02
-1.643914580345153809e-01
-6.347129493951797485e-02
1.328000724315643311e-01
-2.980069722980260849e-03
-5.299209803342819214e-02
-2.407126426696777344e-01
-4.887153580784797668e-02
4.854369908571243286e-03
8.572582155466079712e-02
2.966373264789581299e-01
-1.690696179866790771e-01
-1.647386327385902405e-02
1.700942218303680420e-02
7.199888676404953003e-02
-2.371617555618286133e-01
1.972008347511291504e-01
1.325695365667343140e-01
8.545981720089912415e-03
1.268204301595687866e-01
-1.299230456352233887e-01
7.352312095463275909e-03
8.128695189952850342e-04
2.217507213354110718e-01
4.114692285656929016e-02
-1.709754914045333862e-01
-7.805255055427551270e-02
-1.014611776918172836e-02
2.120333313941955566e-01
1.105217859148979187e-01
-9.767688065767288208e-02
-3.367282077670097351e-02
3.786301473155617714e-03
-2.045879885554313660e-02
-4.063708186149597168e-01
-3.342756628990173340e-02
-2.366060623899102211e-03
-1.048480626195669174e-02
-1.322731077671051025e-01
1.875143647193908691e-01
-1.296682655811309814e-01
-7.738435175269842148e-03
4.993116017431020737e-03
-1.173317655920982361e-01
-1.289719194173812866e-01
-6.913114339113235474e-02
-1.339302118867635727e-02
-2.079410701990127563e-01
2.139419764280319214e-01
-1.944926567375659943e-02
-1.723308488726615906e-02
3.920563682913780212e-02
4.812598600983619690e-02
1.103010727092623711e-03
1.544859111309051514e-01
-3.225496411323547363e-02
2.042875438928604126e-02
-6.957077234983444214e-02
-3.070449456572532654e-03
1.992774158716201782e-01
2.639322774484753609e-03
-7.379604876041412354e-02
-2.853027880191802979e-01
5.475103110074996948e-02
-4.974875599145889282e-02
-1.785734891891479492e-01
-2.314475178718566895e-01
2.244574129581451416e-01
1.481676548719406128e-01
-3.874957188963890076e-02
3.297800198197364807e-02
1.580089628696441650e-01
8.311054110527038574e-02
4.054366052150726318e-02
8.592757396399974823e-03
6.500811874866485596e-02
3.043543696403503418e-01
1.023645233362913132e-02
-9.165104478597640991e-03
-7.510670274496078491e-02
8.802402764558792114e-02
8.515574038028717041e-02
1.791440248489379883e-01
-9.394885040819644928e-03
-5.511099845170974731e-02
5.515670031309127808e-02
5.091515183448791504e-01
2.156212180852890015e-01
-7.570583373308181763e-03
3.402958810329437256e-02
-4.116155207157135010e-01
1.461201533675193787e-02
-1.348158344626426697e-02
-1.055720746517181396e-01
-1.907573938369750977e-01
1.148080602288246155e-01
1.698329597711563110e-01
-1.231548003852367401e-02
-4.688068106770515442e-02
-5.048060789704322815e-02
-3.157261312007904053e-01
1.846669316291809082e-01
-7.585944142192602158e-03
-8.415845036506652832e-02
-1.794961541891098022e-01
9.393394924700260162e-03
-6.364429369568824768e-03
-1.741802692413330078e-01
7.065532356500625610e-02
1.012481078505516052e-01
-9.800332784652709961e-02
-2.971130423247814178e-03
-1.460275650024414062e-01
-3.606964647769927979e-01
-9.249789714813232422e-01
-1.141509562730789185e-01
-6.524919997900724411e-03
-5.686615593731403351e-03
2.666587941348552704e-02
1.414799597114324570e-02
-2.054334245622158051e-02
-2.521823942661285400e-01
-4.910206422209739685e-03
-1.248215362429618835e-01
-1.457336097955703735e-01
-2.353635430335998535e-02
2.504983544349670410e-01
1.408143192529678345e-01
1.978699564933776855e-01
-6.370484083890914917e-02
-5.294919479638338089e-03
-2.525506615638732910e-01
1.086903065443038940e-01
5.676651746034622192e-02
-9.182584472000598907e-03
2.461559325456619263e-01
-1.838391572237014771e-01
1.083727404475212097e-01
-2.497904188930988312e-02
-7.553914329037070274e-04
2.686823606491088867e-01
-1.349299550056457520e-01
-2.177675068378448486e-01
-9.312336146831512451e-02
1.831255387514829636e-03
1.025407984852790833e-01
-3.980625420808792114e-02
-2.006837166845798492e-02
8.207175880670547485e-02
-2.549776434898376465e-01
6.701471656560897827e-02
-3.974595293402671814e-02
1.951256766915321350e-02
8.192043006420135498e-02
1.355281323194503784e-01
4.176224023103713989e-02
-7.374822627753019333e-03
3.650640696287155151e-02
1.256496179848909378e-02
6.026234477758407593e-02
-2.368316054344177246e-01
-4.675833915825933218e-04
1.838498562574386597e-02
9.208692610263824463e-02
-1.426538825035095215e-01
1.838456690311431885e-01
-6.187537685036659241e-02
1.775561831891536713e-02
-2.385095134377479553e-02
7.262800633907318115e-02
-8.044389635324478149e-02
-7.812900841236114502e-02
-1.087376475334167480e-02
1.577749848365783691e-01
-1.443881839513778687e-01
2.126213721930980682e-02
2.075297944247722626e-02
1.503596901893615723e-01
5.109939351677894592e-02
1.429977566003799438e-01
-1.490686237812042236e-01
4.768657311797142029e-02
1.850262284278869629e-01
-2.469356358051300049e-01
-4.264487028121948242e-01
-1.766230463981628418e-01
-4.503384977579116821e-02
-1.120960488915443420e-01
2.389321327209472656e-01
-3.006651997566223145e-02
-1.450998429208993912e-02
-7.270376384258270264e-02
4.435764160007238388e-03
-1.138682067394256592e-01
1.238467469811439514e-01
-1.167481672018766403e-02
-1.336245983839035034e-01
2.416606694459915161e-01
-2.220253050327301025e-01
1.675110012292861938e-01
-1.027102675288915634e-02
9.912602603435516357e-03
-3.739459812641143799e-01
-2.241966314613819122e-03
-3.224083036184310913e-02
7.855299115180969238e-02
8.005215227603912354e-02
1.342547088861465454e-01
-1.395197659730911255e-01
-3.195414692163467407e-02
-4.175118356943130493e-02
-2.806786298751831055e-01
-8.387273550033569336e-02
-1.879909634590148926e-01
1.445899251848459244e-03
7.063093129545450211e-03
9.740530699491500854e-02
9.586573578417301178e-03
-2.390479855239391327e-02
1.202310845255851746e-01
6.845565140247344971e-02
3.043728694319725037e-02
-1.333915889263153076e-01
-1.066259946674108505e-02
1.846058107912540436e-02
-1.302890926599502563e-01
8.145996369421482086e-03
1.134317740797996521e-02
1.705854386091232300e-02
-3.676062822341918945e-02
1.100964993238449097e-01
7.528735697269439697e-02
-9.713148325681686401e-02
-3.706983029842376709e-01
1.741727069020271301e-02
8.834550529718399048e-02
9.804959595203399658e-02
-9.303195029497146606e-02
-1.379403937608003616e-02
-6.202754750847816467e-02
-1.352581381797790527e-01
1.245846040546894073e-02
-9.395220316946506500e-03
-8.425620198249816895e-02
1.735904812812805176e-02
-4.868187382817268372e-02
4.606154747307300568e-03
8.317836374044418335e-02
-1.181223839521408081e-01
3.308046609163284302e-02
-2.708592265844345093e-02
7.696477696299552917e-04
8.543883264064788818e-02
1.955889910459518433e-02
-1.249992176890373230e-01
-2.093402892351150513e-01
9.997212328016757965e-03
3.901495039463043213e-02
-6.259274482727050781e-02
-3.114877967163920403e-03
-4.174929112195968628e-02
6.584760546684265137e-02
5.129342526197433472e-02
6.397487223148345947e-02
-1.124587953090667725e-01
-4.459826648235321045e-02
3.111935965716838837e-02
-5.202641338109970093e-02
4.278920590877532959e-02
3.493288159370422363e-02
3.094547986984252930e-02
-2.710414677858352661e-02
-4.934438318014144897e-02
-7.745034992694854736e-02
-6.370089948177337646e-02
-2.434282936155796051e-02
-2.483595535159111023e-02
-3.056895174086093903e-02
7.548374123871326447e-03
-3.447464853525161743e-02
2.047865279018878937e-02
1.122396886348724365e-01
-6.528262048959732056e-02
2.442181669175624847e-02
-5.929998587816953659e-03
-5.729884654283523560e-02
2.149567008018493652e-02
-6.463206559419631958e-02
9.016746655106544495e-03
-1.399006135761737823e-02
-1.247451826930046082e-02
-1.115918252617120743e-02
-2.217675559222698212e-02
3.750861808657646179e-02
3.147885575890541077e-02
-1.196875143796205521e-02
1.262972946278750896e-03
5.280710384249687195e-02
1.080351546406745911e-01
-3.142743185162544250e-02
2.174338884651660919e-02
-4.016370698809623718e-02
3.044828213751316071e-02
1.114569231867790222e-02
1.043796911835670471e-01
1.970354281365871429e-02
8.874363452196121216e-02
1.775628514587879181e-02
-1.856626593507826328e-03
-5.233363434672355652e-02
3.868586197495460510e-02
-7.932575419545173645e-03
-3.992974385619163513e-02
-1.196358501911163330e-01
-1.553818699903786182e-03
3.299658000469207764e-02
3.642027080059051514e-02
-3.716857405379414558e-03
4.375308752059936523e-02
3.960395604372024536e-02
-3.988245129585266113e-02
-1.691951788961887360e-02
8.006027340888977051e-02
3.242230042815208435e-02
-6.239606812596321106e-02
7.339541800320148468e-03
-3.341414034366607666e-02
2.556178718805313110e-02
-1.025938689708709717e-01
1.132280752062797546e-02
2.568209730088710785e-02
-5.053858458995819092e-02
3.602790459990501404e-02
-4.890247806906700134e-02
2.953808195888996124e-02
9.160490334033966064e-02
3.741598501801490784e-02
-3.977783024311065674e-02
-8.282390981912612915e-02
1.470572128891944885e-02
9.965241700410842896e-02
-2.832889184355735779e-02
-5.856608971953392029e-02
-3.497653827071189880e-02
-6.227967794984579086e-03
2.327365428209304810e-02
4.757492616772651672e-02
-8.307307958602905273e-03
4.079906269907951355e-02
-5.115344375371932983e-02
7.128822803497314453e-02
1.091319369152188301e-03
-4.578620567917823792e-02
-4.316855221986770630e-02
2.771058492362499237e-02
-8.395866304636001587e-02
5.627882853150367737e-02
5.086572468280792236e-02
-4.162950068712234497e-02
-5.459899082779884338e-02
-9.731563180685043335e-02
-2.082806639373302460e-02
-1.240563672035932541e-02
1.286767795681953430e-02
6.271238625049591064e-02
-5.958667397499084473e-02
-1.055712625384330750e-01
-2.116912743076682091e-03
6.070496141910552979e-02
-3.366726264357566833e-02
-3.250014735385775566e-03
-3.982142731547355652e-02
-3.532264754176139832e-02
2.737965248525142670e-02
9.449597448110580444e-02
-6.644284725189208984e-02
-2.735020220279693604e-02
-3.533224761486053467e-02
-1.271008700132369995e-01
-2.432911470532417297e-02
-5.460717901587486267e-02
-6.392408162355422974e-02
-5.963589996099472046e-02
-9.412209328729659319e-05
4.571732133626937866e-02
-1.930842734873294830e-02
-3.387236893177032471e-01
8.382339030504226685e-03
-3.214906156063079834e-02
5.243565887212753296e-02
1.413429677486419678e-01
2.945615649223327637e-01
2.458875300362706184e-03
9.844694286584854126e-02
-2.364328354597091675e-01
-9.112910926342010498e-02
1.496312916278839111e-01
1.732985079288482666e-01
1.699401587247848511e-01
9.447307325899600983e-03
2.207499593496322632e-01
-4.723557457327842712e-02
-3.499662876129150391e-02
-7.133883982896804810e-02
-2.760083079338073730e-01
2.548440694808959961e-01
-1.523726582527160645e-01
-2.068568021059036255e-02
1.973670423030853271e-01
1.467377040535211563e-02
3.682516515254974365e-02
5.226308852434158325e-02
2.502931058406829834e-01
5.615305155515670776e-02
-5.560527741909027100e-02
-1.814414933323860168e-02
1.188481226563453674e-01
1.849105395376682281e-02
1.709043234586715698e-02
-6.138391327112913132e-03
1.371772959828376770e-02
-4.273867234587669373e-03
4.446513578295707703e-02
6.608156114816665649e-02
-1.436519809067249298e-02
-7.608909159898757935e-02
-7.068271189928054810e-02
7.739224284887313843e-02
-6.247425079345703125e-02
-2.026631124317646027e-02
-3.167073940858244896e-03
1.004477292299270630e-01
-1.265616863965988159e-01
-3.362251445651054382e-02
-3.580587729811668396e-02
-5.029129236936569214e-02
-2.168744429945945740e-02
-3.647598251700401306e-02
6.157096475362777710e-02
-8.808629587292671204e-03
1.510116457939147949e-02
1.398866325616836548e-01
-1.145559828728437424e-02
-3.958909213542938232e-02
4.880643263459205627e-02
-2.302629500627517700e-01
5.449456349015235901e-02
1.175718456506729126e-01
6.527545303106307983e-02
1.339670852757990360e-03
4.470323398709297180e-02
-6.880543078295886517e-04
-5.023904517292976379e-02
5.616542766802012920e-04
-4.036488011479377747e-02
1.440416742116212845e-02
-4.863554239273071289e-02
-2.589251147583127022e-03
-1.791123300790786743e-01
3.750264644622802734e-02
1.771553605794906616e-02
-5.343810771591961384e-04
1.224830001592636108e-01
-4.551957920193672180e-02
-1.120321527123451233e-01
9.190120548009872437e-02
1.806185953319072723e-02
1.378566958010196686e-02
1.464468333870172501e-02
-8.111315220594406128e-02
7.314731925725936890e-02
-7.214063405990600586e-02
-1.809542998671531677e-02
-1.722400337457656860e-01
1.015593931078910828e-01
-6.877834349870681763e-02
1.482880115509033203e-02
-1.061756238341331482e-01
-1.433136549167102203e-05
-4.049294814467430115e-02
6.478001922369003296e-02
5.781651288270950317e-02
6.104500964283943176e-02
-3.522624820470809937e-02
-5.593483150005340576e-02
4.941819980740547180e-02
-1.143589057028293610e-02
-7.191644515842199326e-03
-1.108732745051383972e-01
-5.159402266144752502e-02
-8.030670881271362305e-02
3.784107416868209839e-02
-5.970972031354904175e-02
5.885231774300336838e-03
4.460818134248256683e-03
-3.463651612401008606e-02
1.102132070809602737e-02
-5.972153320908546448e-02
3.736026352271437645e-03
2.592680230736732483e-02
-1.019160002470016479e-01
2.931867539882659912e-02
-5.182974040508270264e-02
7.134106755256652832e-02
-9.358174353837966919e-02
9.283556044101715088e-02
1.967423781752586365e-02
-6.208391860127449036e-02
-3.504301421344280243e-03
-1.485391408205032349e-01
-7.830328308045864105e-03
6.377115100622177124e-02
1.282438542693853378e-02
-1.652615889906883240e-02
5.844812374562025070e-03
5.309355258941650391e-02
-4.257031530141830444e-02
2.974298782646656036e-02
1.877666078507900238e-02
-3.162516281008720398e-02
-1.621035486459732056e-01
-4.224954545497894287e-02
-7.986481487751007080e-02
1.011455878615379333e-01
-2.570439502596855164e-02
-1.212546750903129578e-01
4.777145013213157654e-02
1.617124490439891815e-02
-1.323583573102951050e-01
1.290523558855056763e-01
1.952668838202953339e-02
3.452185774222016335e-03
-2.182806096971035004e-02
5.342864245176315308e-02
1.394749581813812256e-01
1.992165669798851013e-02
-1.043817400932312012e-01
-4.861137270927429199e-02
-2.988903969526290894e-02
-1.340050548315048218e-01
9.586751461029052734e-02
-9.749576449394226074e-02
6.215097010135650635e-02
-8.306295610964298248e-03
4.362847656011581421e-02
7.163460552692413330e-02
-3.868435621261596680e-01
-5.029312148690223694e-02
-3.720894455909729004e-02
1.024799272418022156e-01
1.945816278457641602e-01
1.023357659578323364e-01
-1.116903945803642273e-01
3.112751990556716919e-02
-2.849861383438110352e-01
1.233032569289207458e-01
-7.295917719602584839e-02
-1.310259103775024414e-01
-4.097110033035278320e-02
-4.903256893157958984e-02
-9.463284909725189209e-02
1.030732970684766769e-02
1.069428026676177979e-02
1.120402961969375610e-01
1.361776590347290039e-01
5.606685578823089600e-02
-7.237110286951065063e-02
1.605123132467269897e-01
-1.011969149112701416e-01
8.064037561416625977e-02
4.511331021785736084e-02
-5.026359483599662781e-02
-8.998708426952362061e-02
-1.004282906651496887e-01
-5.003812536597251892e-02
1.430293172597885132e-01
1.207966078072786331e-02
-4.378418624401092529e-02
-1.090470794588327408e-02
4.843439161777496338e-02
-2.785165607929229736e-02
-1.719242893159389496e-02
-1.867682673037052155e-02
-6.401811540126800537e-02
-1.806359179317951202e-02
6.244378909468650818e-02
-4.135319218039512634e-02
-1.126992180943489075e-01
7.942304760217666626e-02
1.509546488523483276e-02
-3.280467540025711060e-02
4.219224303960800171e-02
7.655095309019088745e-02
1.058526486158370972e-01
5.173537135124206543e-02
4.129556566476821899e-02
1.053372174501419067e-01
9.284743107855319977e-03
9.289921261370182037e-03
-3.493618220090866089e-02
-2.259586565196514130e-02
-7.595400512218475342e-02
-2.954337745904922485e-02
-6.563742645084857941e-03
8.010672405362129211e-03
6.529077421873807907e-03
-2.948932163417339325e-02
7.768026739358901978e-02
8.828528970479965210e-02
3.675072267651557922e-02
7.451585680246353149e-02
6.393820978701114655e-03
-7.545734196901321411e-02
-5.247294902801513672e-02
1.226170803420245647e-03
-2.548137865960597992e-02
-6.873585749417543411e-03
1.564074493944644928e-02
-1.263954490423202515e-01
-8.088825643062591553e-02
5.579398199915885925e-02
8.478614501655101776e-03
-3.205472975969314575e-02
1.661763042211532593e-01
1.706155017018318176e-02
-6.575798988342285156e-02
6.700887531042098999e-02
5.933580920100212097e-02
1.346227712929248810e-02
-5.886864662170410156e-02
-2.978010475635528564e-02
-4.494258761405944824e-02
-6.338538974523544312e-02
-5.603972822427749634e-02
8.199608325958251953e-02
-4.403693135827779770e-03
-1.956011168658733368e-02
2.661280101165175438e-03
1.178015768527984619e-02
4.339591786265373230e-02
-5.999618023633956909e-02
2.818023785948753357e-02
3.974124044179916382e-02
-4.511899873614311218e-02
9.443435072898864746e-02
-2.070067077875137329e-02
1.326719075441360474e-01
6.457281112670898438e-02
3.194883838295936584e-02
7.817002385854721069e-02
-3.519299253821372986e-02
-3.584173321723937988e-02
-2.158714085817337036e-02
1.471607666462659836e-02
2.402976900339126587e-02
7.035929709672927856e-02
1.371845006942749023e-01
-7.384804077446460724e-03
3.809706866741180420e-02
1.929238997399806976e-02
-3.822558210231363773e-04
-5.367014557123184204e-02
1.278044283390045166e-02
7.303314656019210815e-02
8.371804654598236084e-02
-6.993350386619567871e-02
-4.842766746878623962e-02
-1.240118592977523804e-02
-2.706329338252544403e-02
6.584822665899991989e-03
-1.031120494008064270e-02
-3.278100490570068359e-02
4.106924310326576233e-02
3.792614908888936043e-03
4.025002568960189819e-02
2.063722349703311920e-02
5.729671940207481384e-02
8.597355335950851440e-02
2.397187985479831696e-02
3.970130905508995056e-02
4.790868237614631653e-02
-1.842715591192245483e-02
-6.379719078540802002e-02
2.504937350749969482e-02
6.761553883552551270e-02
-2.769044972956180573e-02
-5.054860189557075500e-02
1.795118302106857300e-01
-3.968755900859832764e-02
-3.407868370413780212e-02
-1.969479396939277649e-02
-3.155631711706519127e-04
8.357402868568897247e-03
6.285767257213592529e-02
-2.703316509723663330e-02
-8.885129541158676147e-02
2.232586778700351715e-02
-1.186722218990325928e-01
5.259474273771047592e-03
-2.304685488343238831e-02
-5.570214241743087769e-02
-9.640049189329147339e-02
-1.816233620047569275e-02
-9.653297811746597290e-02
-3.646194562315940857e-02
1.547087822109460831e-02
-2.332690171897411346e-02
1.000612080097198486e-01
-1.837491691112518311e-01
-7.787644863128662109e-02
-1.331970542669296265e-01
-1.757973283529281616e-01
-1.862781345844268799e-01
-5.183812975883483887e-02
-1.277666240930557251e-01
-1.337003111839294434e-01
-4.660028815269470215e-01
-3.140608966350555420e-01
-2.391421943902969360e-01
3.012489899992942810e-02
-2.914302349090576172e-01
4.069780185818672180e-02
-2.101070731878280640e-01
1.017582714557647705e-01
-2.554958462715148926e-01
-4.460940882563591003e-02
1.594369113445281982e-01
-8.993305265903472900e-02
-5.087926983833312988e-01
-7.653338834643363953e-03
-1.364184617996215820e-01
-1.268334686756134033e-01
-2.332471311092376709e-01
-9.531778097152709961e-02
-2.692064046859741211e-01
-3.141244500875473022e-02
-1.093600690364837646e-01
1.419370248913764954e-02
-7.490596175193786621e-02
-3.410601615905761719e-02
6.183232739567756653e-02
-4.897176846861839294e-02
-1.148266345262527466e-01
-4.659791663289070129e-02
-5.558676645159721375e-02
-2.590543217957019806e-02
9.341806173324584961e-02
-4.151158034801483154e-03
-1.094371303915977478e-01
2.927359193563461304e-02
-1.857332699000835419e-02
3.467277064919471741e-02
2.362707629799842834e-02
-3.727339953184127808e-02
2.987712621688842773e-02
-1.155101042240858078e-02
-4.041871428489685059e-02
-1.568732559680938721e-01
-3.415022417902946472e-02
2.918754704296588898e-02
5.022170394659042358e-02
4.436473827809095383e-03
7.936625927686691284e-02
-3.392766788601875305e-02
-3.432966396212577820e-02
4.912654985673725605e-04
-4.884866997599601746e-02
-4.345225170254707336e-02
-9.857358783483505249e-02
5.671874433755874634e-02
-1.193709746003150940e-01
4.741351678967475891e-02
5.706898868083953857e-02
6.097408011555671692e-03
3.003487922251224518e-02
-9.328096359968185425e-02
-3.912486135959625244e-03
-5.478372424840927124e-02
-4.605453461408615112e-02
7.734715938568115234e-02
7.007116824388504028e-02
6.031855195760726929e-02
9.548482298851013184e-02
1.540854806080460548e-03
-1.249781399965286255e-01
1.976704038679599762e-02
-2.186570130288600922e-02
-1.050927564501762390e-01
5.335997045040130615e-02
2.418598718941211700e-02
-5.868100747466087341e-02
-1.372721884399652481e-02
7.872554659843444824e-02
5.542392656207084656e-02
-8.844200521707534790e-03
-6.561844050884246826e-02
7.443473488092422485e-02
3.233696147799491882e-02
2.652761712670326233e-02
7.408820837736129761e-02
2.462583780288696289e-01
1.192380115389823914e-02
-9.110713005065917969e-02
7.543846219778060913e-02
2.984568476676940918e-02
-9.393879771232604980e-02
3.147289855405688286e-03
8.593691140413284302e-02
-5.143946036696434021e-02
1.543535385280847549e-02
7.360050082206726074e-02
1.183268148452043533e-02
-3.700664639472961426e-02
-1.142763569951057434e-01
-4.661628231406211853e-02
2.392055932432413101e-03
1.546454615890979767e-02
-8.845542371273040771e-02
6.776788085699081421e-02
-4.571319743990898132e-02
-5.848478060215711594e-03
-4.708119481801986694e-02
3.003307990729808807e-02
-1.936635747551918030e-02
9.051240980625152588e-02
5.740243569016456604e-02
2.061575092375278473e-02
-5.849974974989891052e-02
3.717632591724395752e-02
-1.466273795813322067e-02
4.505275562405586243e-02
7.072339206933975220e-02
-8.658985025249421597e-04
-1.213030219078063965e-01
-1.443461030721664429e-01
-1.576954312622547150e-02
4.188958927989006042e-02
1.695145666599273682e-02
-3.690996393561363220e-02
-6.799877434968948364e-02
-1.668358105234801769e-03
3.631809353828430176e-02
-3.802356868982315063e-02
2.252864837646484375e-02
-3.069639205932617188e-02
2.524249255657196045e-02
1.150063127279281616e-01
-1.302700936794281006e-01
-1.121779531240463257e-01
-2.273000478744506836e-01
8.197298273444175720e-03
2.050175890326499939e-02
7.351880776695907116e-04
2.808583900332450867e-02
-7.256246358156204224e-02
9.433198720216751099e-02
1.460878271609544754e-02
3.803073242306709290e-02
-2.155026048421859741e-02
-7.925648242235183716e-02
8.347251266241073608e-02
-5.510512366890907288e-02
-3.035052865743637085e-02
3.898528218269348145e-02
3.266104310750961304e-02
-1.837602406740188599e-01
6.749305129051208496e-02
-4.077867567539215088e-01
1.007196977734565735e-01
-1.061415970325469971e-01
2.562885284423828125e-01
-1.689837425947189331e-01
-1.558126062154769897e-01
-2.135732769966125488e-01
7.129157334566116333e-02
-4.147693142294883728e-02
-4.368310049176216125e-02
-1.855602711439132690e-01
-4.613616690039634705e-02
1.088292226195335388e-01
-4.694410040974617004e-02
3.438589337747544050e-04
1.713722385466098785e-02
-1.664698123931884766e-02
2.493383586406707764e-01
-4.199545681476593018e-01
-4.118278324604034424e-01
8.933483622968196869e-03
-1.005267947912216187e-01
-3.406519442796707153e-02
1.584103554487228394e-01
-1.522215753793716431e-01
-1.417005360126495361e-01
-1.525486260652542114e-01
1.460372209548950195e-01
-3.533915057778358459e-02
-6.512014567852020264e-02
4.699483886361122131e-02
5.200285464525222778e-02
-3.841865062713623047e-02
9.240287356078624725e-03
-3.428700193762779236e-02
-3.053084015846252441e-02
4.037609696388244629e-02
-5.682079866528511047e-02
-4.528130590915679932e-02
4.799382016062736511e-02
5.220676306635141373e-03
-3.743681311607360840e-02
2.292999438941478729e-02
-1.008005533367395401e-02
-3.624110296368598938e-02
6.441939622163772583e-02
4.395189508795738220e-02
8.853410184383392334e-02
-1.366625912487506866e-02
-3.281242772936820984e-02
3.238604217767715454e-02
4.662305000238120556e-04
-1.445399969816207886e-02
3.034631721675395966e-02
-2.466730028390884399e-02
7.230637222528457642e-02
2.452580630779266357e-02
-5.143665149807929993e-02
-6.131104007363319397e-02
-3.588658990338444710e-03
-2.350117266178131104e-02
-3.599749878048896790e-02
2.223017811775207520e-02
7.942836731672286987e-02
3.122319653630256653e-02
8.611358702182769775e-02
-5.903707444667816162e-02
-1.018707305192947388e-01
-8.894205093383789062e-02
-1.279907524585723877e-01
-7.092515379190444946e-02
-9.333033859729766846e-02
2.801913395524024963e-02
1.136017739772796631e-01
8.281218260526657104e-02
5.861606076359748840e-02
-1.118529820814728737e-03
1.818057708442211151e-02
7.722971588373184204e-02
4.280816391110420227e-02
-2.163864672183990479e-02
-2.704827859997749329e-02
-2.025438286364078522e-02
9.233725070953369141e-02
-3.332914412021636963e-02
-1.309781149029731750e-02
1.041916012763977051e-02
-4.698251187801361084e-02
3.596911951899528503e-02
-3.080900944769382477e-02
8.955858647823333740e-02
-1.158677861094474792e-01
-2.733467333018779755e-02
4.715593531727790833e-02
-7.616359740495681763e-02
-9.453372657299041748e-02
5.272027477622032166e-02
-7.227253168821334839e-03
7.126925140619277954e-02
6.813968718051910400e-02
-4.938708990812301636e-02
-1.086974889039993286e-02
7.131476700305938721e-02
-5.579855293035507202e-02
9.723444964038208127e-05
5.715021118521690369e-02
-6.526795774698257446e-02
5.001837760210037231e-02
-1.402785256505012512e-02
9.125714004039764404e-02
4.146554972976446152e-03
4.082519188523292542e-02
1.355104381218552589e-03
-2.446654811501502991e-02
-1.334005594253540039e-02
2.875970909371972084e-03
-6.432129442691802979e-02
3.668108209967613220e-02
4.362363740801811218e-02
-4.920409619808197021e-02
-1.006336584687232971e-01
-2.161585912108421326e-02
3.927180077880620956e-03
1.015081163495779037e-02
7.318293675780296326e-03
-1.998952217400074005e-02
4.821247886866331100e-03
2.223789133131504059e-02
3.353069350123405457e-02
7.879797369241714478e-02
-1.968896714970469475e-03
-8.666104078292846680e-02
2.034526690840721130e-02
-5.652626976370811462e-02
-6.998599320650100708e-02
2.605010941624641418e-02
1.270520240068435669e-01
7.239214330911636353e-02
8.610261231660842896e-02
5.419263988733291626e-02
1.404832750558853149e-01
-6.951622199267148972e-03
-2.718847990036010742e-02
-4.629935696721076965e-02
-1.812699995934963226e-02
8.871273696422576904e-02
4.973609745502471924e-02
-4.517667368054389954e-02
-1.143563464283943176e-01
1.202443614602088928e-02
-1.287842541933059692e-01
-3.894029185175895691e-02
2.798741869628429413e-02
7.042679470032453537e-03
-5.213926732540130615e-02
-2.179853022098541260e-01
1.049677841365337372e-02
1.370531767606735229e-01
8.732084929943084717e-02
-1.641084253787994385e-01
-1.343478113412857056e-01
-2.115574181079864502e-01
-6.852058321237564087e-02
-7.890184968709945679e-02
-1.973887830972671509e-01
-7.340760529041290283e-02
-1.535232365131378174e-01
-1.581554412841796875e-01
-8.168268948793411255e-02
-1.217770501971244812e-01
-3.218481242656707764e-01
-2.583849728107452393e-01
-1.643370091915130615e-01
-2.136617451906204224e-01
-1.967673599720001221e-01
-9.043562412261962891e-02
-8.995438367128372192e-02
-4.817477986216545105e-02
-1.747994124889373779e-01
6.538420915603637695e-02
-6.013462319970130920e-02
-3.676922321319580078e-01
-3.191424533724784851e-02
-1.477763205766677856e-01
-7.335640490055084229e-02
-2.560680508613586426e-01
-9.176307916641235352e-02
-1.590207219123840332e-01
-8.997769653797149658e-02
-2.332761883735656738e-01
7.616417109966278076e-02
3.737079352140426636e-02
-1.963977888226509094e-02
3.662660717964172363e-02
-1.855858787894248962e-02
9.928513318300247192e-02
-4.217780008912086487e-02
-5.613518878817558289e-02
1.174686197191476822e-02
6.804093718528747559e-02
-5.140502378344535828e-02
-5.544520169496536255e-02
3.032388351857662201e-02
-1.268076524138450623e-02
2.135326899588108063e-02
5.310586467385292053e-02
-7.794326543807983398e-02
4.429055377840995789e-02
1.458978373557329178e-02
-9.279561229050159454e-03
-6.782863289117813110e-02
-5.727323889732360840e-02
-3.790240734815597534e-02
6.310748308897018433e-02
-1.549176573753356934e-01
1.381290028803050518e-03
4.925180971622467041e-02
3.658290952444076538e-02
-1.223395466804504395e-01
-5.029979720711708069e-02
7.532061543315649033e-03
5.019777268171310425e-02
-1.050866916775703430e-01
4.132332280278205872e-02
-2.968967333436012268e-02
8.554162085056304932e-02
-2.955220825970172882e-02
4.567614570260047913e-02
3.915878012776374817e-02
-3.503223136067390442e-02
5.875737406313419342e-03
2.771445782855153084e-03
-4.782645031809806824e-02
3.220360726118087769e-02
-3.191215544939041138e-02
1.038549095392227173e-02
9.370456635951995850e-02
-8.593945764005184174e-03
1.648589409887790680e-02
2.312415279448032379e-02
3.287899866700172424e-02
-6.871158629655838013e-02
1.816181465983390808e-02
-5.505594983696937561e-02
1.149623934179544449e-02
-6.168948486447334290e-03
-2.596178948879241943e-01
2.459532953798770905e-02
1.332243555225431919e-03
8.004495757631957531e-04
1.309989690780639648e-01
2.779879607260227203e-02
-7.689303904771804810e-02
-1.646962389349937439e-02
-5.381351709365844727e-02
1.704941317439079285e-02
-6.012317258864641190e-03
1.158057898283004761e-02
-5.049343034625053406e-02
2.909540198743343353e-02
3.076161816716194153e-02
-2.717123553156852722e-02
9.397399425506591797e-02
-3.470985218882560730e-02
3.393536061048507690e-02
4.199140146374702454e-02
2.325056120753288269e-03
4.977239295840263367e-02
8.647622168064117432e-02
5.196372047066688538e-02
-1.082803495228290558e-02
-4.108355194330215454e-02
-2.845252677798271179e-02
6.317141652107238770e-02
5.221403762698173523e-02
-4.708665981888771057e-02
5.000684410333633423e-02
-5.148841068148612976e-02
-1.560200452804565430e-01
8.485563099384307861e-03
-2.780447155237197876e-02
6.814899854362010956e-03
7.387437857687473297e-03
2.988124638795852661e-02
-2.734091877937316895e-02
-1.867489516735076904e-02
5.880236998200416565e-02
7.224539667367935181e-02
2.598559111356735229e-02
-6.692357361316680908e-03
-3.000812418758869171e-02
-6.507722288370132446e-02
3.188410028815269470e-02
-6.671047210693359375e-02
1.047532111406326294e-01
1.406286656856536865e-02
-5.029506608843803406e-02
1.168502718210220337e-01
-4.505629464983940125e-02
6.113651767373085022e-02
-6.536716595292091370e-03
-1.744358986616134644e-02
-7.616806775331497192e-02
1.325587183237075806e-01
-7.344219088554382324e-02
3.296710923314094543e-02
-7.300935685634613037e-02
-1.111164093017578125e-01
-7.681230455636978149e-02
1.079881638288497925e-01
-2.710338532924652100e-01
6.457581766881048679e-04
-2.537638135254383087e-02
7.634277641773223877e-02
-7.600380573421716690e-03
-3.724988084286451340e-03
-1.621513366699218750e-01
3.458797931671142578e-02
-5.897594690322875977e-01
-3.832201361656188965e-01
-8.856222629547119141e-01
-2.088481485843658447e-01
-1.254221796989440918e-01
7.706780452281236649e-03
-2.545273005962371826e-01
1.154921874403953552e-01
9.386607259511947632e-02
-8.640807121992111206e-02
8.831941336393356323e-02
3.452710807323455811e-02
5.858442932367324829e-02
-7.883862406015396118e-02
-1.724998056888580322e-01
-2.695717513561248779e-01
-2.708785831928253174e-01
-1.099109649658203125e-01
-1.429659426212310791e-01
9.295924566686153412e-03
-3.206872344017028809e-01
-1.843622773885726929e-01
3.170378506183624268e-02
-2.427085787057876587e-01
-1.746739447116851807e-02
-2.506868541240692139e-01
-3.369628489017486572e-01
-1.718670874834060669e-01
-3.652845919132232666e-01
-8.181847631931304932e-02
4.854238126426935196e-03
-2.201245278120040894e-01
4.787446931004524231e-02
3.570878505706787109e-02
-8.603001944720745087e-03
-1.581177487969398499e-02
4.005246609449386597e-02
-5.936330929398536682e-02
-1.169447880238294601e-02
1.675930470228195190e-01
-4.318659007549285889e-02
3.379013761878013611e-02
-8.207869715988636017e-03
4.911991767585277557e-03
-1.242806483060121536e-02
-5.553986504673957825e-02
-5.706521216779947281e-03
-3.670532256364822388e-02
1.061593368649482727e-01
-1.422969102859497070e-01
-2.623141184449195862e-02
-2.640094235539436340e-02
6.823530793190002441e-02
-1.134793274104595184e-02
-1.657927059568464756e-03
-4.256290942430496216e-02
-4.059261828660964966e-02
1.774073988199234009e-01
3.677799180150032043e-02
-1.185279265046119690e-01
1.329422742128372192e-01
-6.638575345277786255e-03
-5.463407840579748154e-03
-1.738221757113933563e-02
5.311271548271179199e-02
1.177568808197975159e-01
8.373576216399669647e-03
-2.605906501412391663e-02
-1.107031945139169693e-03
1.207327190786600113e-02
7.868201285600662231e-02
1.079512760043144226e-02
6.909782439470291138e-02
3.709837794303894043e-02
-2.319009788334369659e-02
2.417863346636295319e-02
-6.289518624544143677e-02
4.748361557722091675e-02
5.184103734791278839e-03
-3.882429562509059906e-03
-1.039828583598136902e-01
-5.020153895020484924e-02
1.764111965894699097e-02
-6.110012903809547424e-02
-1.222810447216033936e-01
-1.728141866624355316e-02
-4.227116331458091736e-02
1.896457001566886902e-02
3.324741870164871216e-02
-1.069815307855606079e-01
8.198124356567859650e-03
1.519019249826669693e-02
-5.144834518432617188e-02
4.894115845672786236e-04
5.332788452506065369e-02
5.931925028562545776e-02
-2.197250258177518845e-03
-1.180376857519149780e-02
2.942794933915138245e-02
-3.795264661312103271e-02
-4.819561541080474854e-02
-1.102146729826927185e-01
3.531660651788115501e-03
1.157842576503753662e-02
4.753614962100982666e-02
1.058787200599908829e-02
-2.371195936575531960e-03
-1.220264062285423279e-01
-2.995477803051471710e-02
9.845725260674953461e-03
7.464273832738399506e-03
2.314941771328449249e-02
4.603250697255134583e-02
-4.182661697268486023e-02
2.380055561661720276e-02
-5.940411239862442017e-02
3.644025651738047600e-03
-1.970226876437664032e-02
1.817083172500133514e-02
-8.002994954586029053e-02
-4.872123897075653076e-02
1.108784973621368408e-01
-7.206366211175918579e-02
-1.848724335432052612e-01
3.184628859162330627e-02
3.259287914261221886e-03
1.969541050493717194e-02
-3.620879724621772766e-03
5.031238868832588196e-02
1.019809097051620483e-01
6.352044641971588135e-02
-2.284577675163745880e-02
-7.678972929716110229e-02
-1.185905337333679199e-01
-7.523472607135772705e-02
7.667404413223266602e-02
7.038348168134689331e-02
5.442102625966072083e-02
-6.251250207424163818e-02
-7.996389269828796387e-02
6.697054952383041382e-02
3.201357647776603699e-02
8.424784988164901733e-02
-4.850851744413375854e-02
1.973367854952812195e-02
-7.882878929376602173e-02
-2.325949026271700859e-03
-5.725578218698501587e-02
-2.469540759921073914e-02
-2.136898040771484375e-02
-1.640138216316699982e-02
-8.539233356714248657e-02
1.759319566190242767e-02
1.303188502788543701e-01
2.570541575551033020e-02
-2.562074922025203705e-02
7.187154144048690796e-02
-2.409300208091735840e-02
-4.960671812295913696e-02
-5.772062391042709351e-02
4.989511892199516296e-02
2.027890235185623169e-01
1.627838462591171265e-01
4.649592190980911255e-02
-3.416291205212473869e-03
-1.083067134022712708e-01
3.802997991442680359e-02
7.096891850233078003e-02
1.016423013061285019e-02
-1.336754113435745239e-01
3.508336097002029419e-02
1.166804209351539612e-01
1.213415265083312988e-01
1.293161213397979736e-01
2.322182953357696533e-01
1.741871982812881470e-01
2.621823847293853760e-01
-3.706501424312591553e-02
8.251235634088516235e-02
-4.939666017889976501e-03
2.383486330509185791e-01
-2.240305244922637939e-01
9.176359325647354126e-02
1.137233376502990723e-01
1.591405868530273438e-01
3.532071113586425781e-01
1.061722040176391602e-01
-5.863694846630096436e-02
2.498654574155807495e-01
2.999840676784515381e-02
-1.188099384307861328e-02
1.104839444160461426e-01
2.222752384841442108e-02
9.008403122425079346e-02
-3.470409661531448364e-02
1.826324313879013062e-02
-2.413117140531539917e-02
-3.602129966020584106e-02
-1.604477502405643463e-02
-1.158139705657958984e-01
-4.623534902930259705e-02
1.341119222342967987e-02
-5.979765951633453369e-02
-8.519438654184341431e-02
-1.372661720961332321e-02
8.179861307144165039e-02
-1.967060379683971405e-02
-4.667646810412406921e-02
-8.250104635953903198e-02
2.719186991453170776e-02
2.485931850969791412e-03
-5.279514193534851074e-02
-4.198738932609558105e-02
3.860642388463020325e-02
-1.340130120515823364e-01
6.875701248645782471e-03
-4.187135025858879089e-02
1.165104284882545471e-02
-3.167130798101425171e-02
-1.549458038061857224e-02
-7.498724013566970825e-02
-1.028523314744234085e-02
-3.712172806262969971e-02
5.787615850567817688e-02
3.901565074920654297e-02
-1.278582066297531128e-01
-1.109032612293958664e-02
4.432122036814689636e-02
9.332266636192798615e-03
-9.873825311660766602e-02
2.162100747227668762e-02
1.754272133111953735e-01
3.912407159805297852e-02
5.453971400856971741e-02
-1.531622093170881271e-02
1.321164369583129883e-01
3.185470029711723328e-02
3.211135789752006531e-02
6.115005910396575928e-02
7.759269326925277710e-02
6.281842291355133057e-02
-2.813275158405303955e-02
3.149328380823135376e-02
-6.722466647624969482e-02
9.720624238252639771e-02
-1.994103752076625824e-02
-2.260144054889678955e-02
-1.191255520097911358e-03
5.726278293877840042e-03
-4.060060530900955200e-02
-7.372272666543722153e-03
7.234391570091247559e-02
-1.314899045974016190e-02
1.975529128685593605e-03
-7.618852704763412476e-02
-5.093616992235183716e-02
2.062577567994594574e-02
5.065762161393649876e-05
-8.231312967836856842e-03
5.803776532411575317e-02
-1.899934932589530945e-02
-2.479519695043563843e-02
5.771677196025848389e-02
-7.870034128427505493e-02
4.356292262673377991e-02
-3.765097633004188538e-02
3.236668184399604797e-02
1.984737347811460495e-03
3.038787096738815308e-02
-4.069484025239944458e-02
-9.409244358539581299e-02
-2.172337658703327179e-02
-6.731032580137252808e-02
5.198100209236145020e-02
4.647489637136459351e-02
3.320075944066047668e-02
1.524415332823991776e-02
3.244154900312423706e-02
-4.070869460701942444e-02
9.221786260604858398e-02
-1.153305731713771820e-02
-4.121455177664756775e-02
6.748130172491073608e-02
3.756463527679443359e-02
1.210453454405069351e-02
4.549213871359825134e-02
-5.066840723156929016e-02
-3.047685138881206512e-02
-4.612554982304573059e-02
-1.137923449277877808e-01
3.541181236505508423e-02
-2.077902294695377350e-02
-8.139751851558685303e-02
-1.052094101905822754e-01
4.943979158997535706e-02
9.510686248540878296e-02
1.169159188866615295e-01
-4.373650252819061279e-02
7.784184813499450684e-02
-1.302747987210750580e-02
-1.811480522155761719e-02
-3.029497712850570679e-02
-7.089906930923461914e-02
9.118502028286457062e-03
7.878398895263671875e-02
-3.001568093895912170e-02
-2.604001387953758240e-02
5.340313538908958435e-02
2.409327588975429535e-02
-3.588919714093208313e-02
3.669753205031156540e-03
8.728048764169216156e-03
-5.464684218168258667e-03
-6.389274727553129196e-03
-2.306693419814109802e-02
9.064189158380031586e-03
-1.664335429668426514e-01
-9.174509346485137939e-02
-3.529534861445426941e-02
-7.437820732593536377e-02
6.203573569655418396e-02
-1.253385841846466064e-01
9.129454940557479858e-02
4.117682576179504395e-03
-7.890124619007110596e-02
-1.849650219082832336e-02
-9.914533048868179321e-02
1.314827054738998413e-02
1.082139387726783752e-01
-1.492251548916101456e-02
1.312467921525239944e-02
1.073127388954162598e-01
1.996327191591262817e-01
2.164820879697799683e-01
1.075149774551391602e-01
1.101167947053909302e-01
-9.599258005619049072e-02
1.055621132254600525e-01
1.962850801646709442e-02
-1.033500488847494125e-02
-8.928595483303070068e-02
-1.617184579372406006e-01
5.581215023994445801e-02
8.800954371690750122e-02
-3.416431695222854614e-02
8.072046935558319092e-02
-2.317915670573711395e-02
1.672105938196182251e-01
6.762957200407981873e-03
1.218865439295768738e-01
2.873418293893337250e-02
1.025503948330879211e-01
-1.141669694334268570e-02
-4.434089735150337219e-02
-1.213294081389904022e-02
2.265050448477268219e-02
-2.712462469935417175e-02
1.858261413872241974e-02
9.156726300716400146e-02
-1.208902746438980103e-01
6.378053128719329834e-02
6.779543589800596237e-03
1.089465618133544922e-02
-8.085812628269195557e-02
5.361395329236984253e-02
1.795951277017593384e-03
-7.776886224746704102e-02
-3.945640288293361664e-03
-1.659962981939315796e-01
6.534536369144916534e-03
-2.090109512209892273e-02
1.089456304907798767e-02
-5.635125190019607544e-02
-8.567751944065093994e-02
-3.469286859035491943e-02
3.824413195252418518e-02
-9.252267330884933472e-02
-1.089920774102210999e-01
4.393113404512405396e-02
1.732622273266315460e-02
4.382187500596046448e-03
-2.242131531238555908e-02
2.986808307468891144e-02
6.532710045576095581e-03
-1.273005269467830658e-02
-4.851850867271423340e-02
8.700360357761383057e-02
-2.968912478536367416e-03
4.266617819666862488e-02
3.740052133798599243e-02
2.445858903229236603e-02
5.185803747735917568e-04
-5.199995264410972595e-02
-4.955605044960975647e-02
7.141532748937606812e-02
-3.927602246403694153e-02
-6.260014325380325317e-02
-7.325472682714462280e-02
1.077166944742202759e-01
-1.903600804507732391e-02
-7.382950186729431152e-02
1.026709005236625671e-02
-1.072513498365879059e-02
7.889885455369949341e-02
4.199086874723434448e-02
-1.651889458298683167e-02
4.913393035531044006e-02
1.431338787078857422e-01
7.667713612318038940e-02
-1.541649270802736282e-02
9.498250484466552734e-02
4.622036963701248169e-02
-2.320679090917110443e-02
-8.568295836448669434e-02
3.870621696114540100e-02
8.028700947761535645e-02
-4.043463990092277527e-02
-4.884097352623939514e-02
-5.190892145037651062e-02
3.100126981735229492e-02
8.444726467132568359e-02
-1.828078553080558777e-02
5.706317722797393799e-02
-7.274521887302398682e-02
3.385157883167266846e-02
-1.068394538015127182e-02
-4.134350642561912537e-02
3.341281414031982422e-02
-8.578828722238540649e-02
9.566083550453186035e-02
1.789431832730770111e-02
-3.434779867529869080e-02
-1.875697821378707886e-01
1.159925907850265503e-01
-9.659198694862425327e-04
-5.666298419237136841e-02
-8.543336391448974609e-02
-1.196395903825759888e-01
-8.033713698387145996e-02
2.256391197443008423e-02
-1.209130063652992249e-01
-4.056200757622718811e-02
9.209723793901503086e-04
-2.567597897723317146e-03
1.971881836652755737e-02
2.429891191422939301e-02
5.137341842055320740e-02
4.883823916316032410e-02
3.804301470518112183e-02
6.258130073547363281e-02
-5.323691293597221375e-02
-7.097641378641128540e-02
8.012767136096954346e-02
3.255391493439674377e-02
4.056410863995552063e-02
-5.493930354714393616e-02
2.024871297180652618e-02
-1.530107259750366211e-01
5.212042108178138733e-02
1.313245575875043869e-02
1.511031202971935272e-02
8.442632108926773071e-02
-8.415948599576950073e-02
-7.431195583194494247e-03
-9.210276603698730469e-02
-1.045265607535839081e-02
-6.553927436470985413e-03
-4.144538566470146179e-02
-1.111407130956649780e-01
-8.805412054061889648e-02
-1.332067768089473248e-03
-7.018222473561763763e-03
6.264563649892807007e-02
-1.608501374721527100e-01
-4.045250266790390015e-02
-3.212796151638031006e-02
-7.506122440099716187e-02
-5.075927358120679855e-03
4.857040569186210632e-02
-2.785148285329341888e-02
5.871695280075073242e-01
-6.255239248275756836e-02
3.911298215389251709e-01
1.128152459859848022e-01
3.273866474628448486e-01
-5.605174973607063293e-02
1.037984713912010193e-01
-4.621604979038238525e-01
-1.769650727510452271e-01
-3.720683604478836060e-02
-1.490980684757232666e-01
-7.506082206964492798e-02
-1.631426811218261719e-01
6.833530217409133911e-02
-2.258259654045104980e-01
-1.362239941954612732e-02
-1.040875166654586792e-01
-6.032602861523628235e-02
1.729740351438522339e-01
-1.643575578927993774e-01
5.608231946825981140e-02
6.610264182090759277e-01
1.336629223078489304e-02
-3.345414623618125916e-02
-5.229447782039642334e-02
-5.130361765623092651e-02
2.454689592123031616e-01
-2.164871431887149811e-02
-9.379968792200088501e-02
1.449892576783895493e-02
9.994709491729736328e-02
1.177969947457313538e-02
-3.656408563256263733e-02
-4.535679146647453308e-02
-2.358371019363403320e-02
6.534722447395324707e-02
-2.577642537653446198e-02
6.159294024109840393e-02
-1.121471747756004333e-01
-1.807622797787189484e-02
-1.557853631675243378e-02
-5.613198131322860718e-02
-7.334826886653900146e-02
-5.766271427273750305e-02
-9.025663882493972778e-02
9.377240203320980072e-03
3.969606384634971619e-02
-9.432484954595565796e-02
1.151096355170011520e-02
2.423876151442527771e-02
1.478694472461938858e-02
-7.346615195274353027e-02
-8.209684491157531738e-02
2.010695822536945343e-02
5.433537811040878296e-02
-5.246283859014511108e-02
1.520146429538726807e-01
-7.970443926751613617e-03
2.214516513049602509e-02
2.335167117416858673e-02
-7.224719040095806122e-03
2.998141571879386902e-02
8.749471604824066162e-02
3.689002245664596558e-02
1.201821714639663696e-01
-7.618746906518936157e-02
3.096762113273143768e-02
4.347826540470123291e-02
5.377498641610145569e-02
2.369887381792068481e-02
8.631143718957901001e-02
-6.655637919902801514e-02
-9.788698703050613403e-02
1.752110756933689117e-02
-3.380892053246498108e-02
-2.356033958494663239e-02
-5.937394499778747559e-02
7.968988269567489624e-02
-4.566424340009689331e-02
-5.588714405894279480e-02
1.370900422334671021e-01
-6.958500482141971588e-03
-6.512977182865142822e-02
-1.305242348462343216e-02
1.208378095179796219e-02
-2.821557864081114531e-04
9.617549367249011993e-03
2.470229193568229675e-02
-1.526252180337905884e-01
5.002797394990921021e-02
-4.168082959949970245e-03
4.757408052682876587e-02
1.017315834760665894e-01
9.384725242853164673e-02
-1.350553482770919800e-01
7.168314186856150627e-05
-8.437472581863403320e-02
-4.064683616161346436e-02
2.961877919733524323e-02
1.238492317497730255e-02
8.790942840278148651e-03
-5.864999443292617798e-02
-1.487804204225540161e-01
3.729997947812080383e-02
-4.026365280151367188e-02
2.513771504163742065e-02
3.428979311138391495e-03
1.818401971831917763e-03
-4.348101839423179626e-02
2.629366330802440643e-02
-4.057301953434944153e-02
-1.907112821936607361e-02
-2.241054549813270569e-02
3.413804247975349426e-02
6.839380413293838501e-02
-3.869247063994407654e-02
3.139716014266014099e-02
4.391580075025558472e-02
1.034613251686096191e-01
-8.128828555345535278e-02
7.013041526079177856e-02
-2.090518176555633545e-02
-8.302959799766540527e-02
-2.204225584864616394e-02
-1.020586937665939331e-01
9.297096729278564453e-02
1.350845992565155029e-01
-3.011913038790225983e-02
4.959155246615409851e-02
-6.947943568229675293e-02
-1.984964497387409210e-02
1.183204539120197296e-02
-5.251320078969001770e-02
-5.404187366366386414e-02
1.970202662050724030e-02
-1.048357337713241577e-01
-8.276661485433578491e-02
-5.313359200954437256e-02
-8.196969330310821533e-02
3.514613024890422821e-03
-9.224142134189605713e-02
-6.038656085729598999e-02
-1.435558497905731201e-01
-6.890411954373121262e-03
-9.823416918516159058e-02
7.683355826884508133e-03
6.473167240619659424e-02
2.561667934060096741e-02
3.127767145633697510e-02
-3.600095864385366440e-03
5.546633899211883545e-02
-1.138406321406364441e-01
6.381990760564804077e-02
-7.292778044939041138e-02
-2.697582915425300598e-02
3.258260339498519897e-02
-5.143063608556985855e-03
-1.102451514452695847e-02
7.502450793981552124e-02
-1.294928137212991714e-02
-3.634633496403694153e-02
-2.726324796676635742e-01
-7.245607674121856689e-02
1.055367141962051392e-01
1.728828251361846924e-01
8.873736858367919922e-02
-1.175152733922004700e-01
8.588241413235664368e-03
-4.792806133627891541e-02
-4.099108651280403137e-02
1.353197991847991943e-01
-7.491117808967828751e-03
5.145836621522903442e-03
-3.880461910739541054e-03
9.471520781517028809e-02
7.664733380079269409e-02
3.459667414426803589e-02
-1.805283501744270325e-02
8.573371917009353638e-02
1.810726374387741089e-01
1.618327051401138306e-01
4.271743446588516235e-02
2.831766903400421143e-01
7.173220068216323853e-02
9.382909536361694336e-02
-6.948117166757583618e-02
-9.688338264822959900e-03
-1.804354973137378693e-02
-6.894636899232864380e-02
7.922584563493728638e-02
1.368571519851684570e-01
8.942575752735137939e-02
-2.326145581901073456e-02
-1.168324872851371765e-01
2.119423262774944305e-02
6.296150386333465576e-02
-7.924565672874450684e-02
-4.621618986129760742e-02
-8.231254667043685913e-02
-1.189339384436607361e-01
-6.342227756977081299e-02
-1.061500310897827148e-01
7.209318131208419800e-02
2.476556226611137390e-02
-3.713278099894523621e-02
-3.837287053465843201e-02
-4.707941412925720215e-02
3.580683469772338867e-02
5.326358228921890259e-02
7.359752804040908813e-02
-1.922333380207419395e-03
7.736684381961822510e-02
-8.096890151500701904e-02
4.879955574870109558e-02
-3.357138112187385559e-02
-1.319779735058546066e-02
-2.976569114252924919e-03
1.341496128588914871e-02
-5.926004052162170410e-02
-4.166835546493530273e-02
2.176416292786598206e-02
-1.118796039372682571e-02
1.596192866563796997e-01
7.270409725606441498e-03
-8.162205666303634644e-02
-1.396011747419834137e-02
1.918789558112621307e-02
-6.645679473876953125e-02
9.166482090950012207e-02
-1.313325390219688416e-02
-3.130969032645225525e-02
-3.748444467782974243e-02
9.824611991643905640e-02
-3.308320045471191406e-02
1.774258352816104889e-02
9.325242042541503906e-02
-4.488189518451690674e-02
-7.377154380083084106e-02
1.105198934674263000e-01
-4.258049279451370239e-02
-3.483907133340835571e-02
-1.807959936559200287e-02
7.270213961601257324e-02
6.961038801819086075e-03
3.356598317623138428e-02
6.438834965229034424e-02
1.393888425081968307e-02
4.778396710753440857e-02
1.690440177917480469e-01
-7.816025614738464355e-02
3.051248937845230103e-02
-7.033334672451019287e-02
-3.448863700032234192e-02
8.489288389682769775e-02
4.174490272998809814e-02
9.719746187329292297e-03
-7.850455492734909058e-02
-4.127056524157524109e-02
-1.058048903942108154e-01
-5.112499743700027466e-02
2.084856294095516205e-02
4.346267879009246826e-02
7.204840332269668579e-02
-1.498129367828369141e-01
-1.148881241679191589e-01
-2.325123734772205353e-02
5.756841972470283508e-02
4.158861702308058739e-04
1.441299542784690857e-02
6.162990629673004150e-02
-3.776416927576065063e-02
-6.598690897226333618e-02
-1.558358035981655121e-02
-2.102832309901714325e-02
-6.685744971036911011e-02
1.619653427042067051e-03
-1.075694188475608826e-01
-3.912066295742988586e-02
-2.186870947480201721e-02
-7.753941416740417480e-02
-4.431930836290121078e-03
2.776657976210117340e-02
7.803825289011001587e-02
9.505001828074455261e-03
8.511920459568500519e-03
-7.074436638504266739e-03
2.057387121021747589e-02
-3.869570791721343994e-02
-1.165933459997177124e-01
-1.093540266156196594e-01
-1.813494041562080383e-02
-6.412775069475173950e-02
9.764660894870758057e-02
-7.891969382762908936e-02
-1.338744759559631348e-01
-1.373057365417480469e-01
3.966991603374481201e-02
-1.054050400853157043e-01
1.908701844513416290e-02
-2.662928588688373566e-02
-7.135602086782455444e-02
2.870608121156692505e-02
8.901230990886688232e-02
3.052833117544651031e-02
-6.919296830892562866e-02
4.651888459920883179e-02
5.366486683487892151e-02
2.435958012938499451e-02
7.314824312925338745e-02
3.187987208366394043e-02
-1.544899307191371918e-02
4.186309874057769775e-02
2.036615312099456787e-01
-2.636735513806343079e-02
9.540020488202571869e-03
4.873445723205804825e-03
3.335956856608390808e-02
-1.781576871871948242e-02
1.435444653034210205e-01
4.062030464410781860e-02
-6.108755618333816528e-02
3.300481438636779785e-01
-6.006188318133354187e-02
7.611358538269996643e-03
-9.482041001319885254e-03
-4.447012022137641907e-02
-1.669759601354598999e-01
-2.430246621370315552e-01
-2.430326640605926514e-01
1.686281152069568634e-02
-1.469922363758087158e-01
-1.855722256004810333e-02
-1.423118449747562408e-02
-1.293714810162782669e-02
-4.222442582249641418e-02
8.639265783131122589e-03
-9.369701147079467773e-02
-8.579628914594650269e-02
-4.462566226720809937e-02
2.630535885691642761e-02
-2.466919273138046265e-01
-4.270186424255371094e-01
-1.084025502204895020e-01
-2.878046967089176178e-02
-1.442189663648605347e-01
-3.321122378110885620e-02
2.972516231238842010e-02
-4.512272402644157410e-02
-1.033936860039830208e-03
7.750552147626876831e-03
4.626923799514770508e-02
7.254228740930557251e-02
-4.187168180942535400e-02
-5.608457326889038086e-02
-1.795657724142074585e-02
3.142483765259385109e-03
-1.147753186523914337e-02
3.114629536867141724e-02
-7.410816103219985962e-02
-3.705504536628723145e-02
5.111411213874816895e-02
-3.431999310851097107e-02
-4.661200568079948425e-02
2.737499214708805084e-02
1.982485316693782806e-02
7.610753178596496582e-02
-7.646263390779495239e-02
-6.485800445079803467e-02
4.063716903328895569e-02
-2.221390791237354279e-02
-2.287228032946586609e-02
-7.702534645795822144e-02
5.446375533938407898e-02
3.014344163239002228e-02
7.657874841243028641e-03
8.512767404317855835e-02
9.544574469327926636e-02
5.518767610192298889e-02
-1.388217322528362274e-03
-3.952996805310249329e-02
1.203517336398363113e-02
1.122333332896232605e-01
6.717807799577713013e-02
8.773341029882431030e-02
2.841274254024028778e-02
-6.018238514661788940e-02
-5.625539645552635193e-02
-4.810896515846252441e-02
-7.865792512893676758e-02
1.044512912631034851e-01
4.253523051738739014e-02
-5.055180191993713379e-02
4.949425812810659409e-03
3.162882104516029358e-02
-9.974324703216552734e-02
-4.709414392709732056e-02
-3.496969491243362427e-02
-5.795961618423461914e-02
-4.677893966436386108e-02
1.082881093025207520e-01
-6.202858686447143555e-02
7.706766575574874878e-02
-5.890773981809616089e-02
-8.513694256544113159e-02
4.116289317607879639e-03
8.989110589027404785e-02
5.206489562988281250e-02
-5.919195339083671570e-02
-1.128085777163505554e-01
3.232282772660255432e-02
3.006856888532638550e-03
-5.065126717090606689e-02
5.137738958001136780e-02
9.852495789527893066e-02
-4.306790232658386230e-02
-2.169880121946334839e-01
4.724265635013580322e-02
7.545022759586572647e-03
-1.787531748414039612e-02
1.288704425096511841e-01
-1.911408454179763794e-02
-4.737357143312692642e-03
1.364954933524131775e-02
9.146072901785373688e-03
8.176015317440032959e-02
-2.175625227391719818e-02
5.429644510149955750e-02
2.671026624739170074e-02
-6.488753110170364380e-02
8.833446539938449860e-03
-7.759631145745515823e-03
-5.961123853921890259e-02
4.844739288091659546e-02
6.765598803758621216e-02
-5.663123726844787598e-02
-2.403204701840877533e-02
-6.100046262145042419e-02
-9.329715371131896973e-02
-4.788868501782417297e-02
-5.904766917228698730e-02
8.319091051816940308e-02
-3.317244350910186768e-02
-1.383255142718553543e-02
6.267301738262176514e-02
-3.104160306975245476e-03
3.757474943995475769e-02
4.976004734635353088e-02
9.599205106496810913e-02
2.398234046995639801e-02
-1.574678272008895874e-01
5.656212940812110901e-02
2.092719450592994690e-02
2.573864161968231201e-02
1.736062467098236084e-01
-5.555552989244461060e-02
-2.361862510442733765e-01
-6.756827235221862793e-02
-7.487714290618896484e-02
-1.503227353096008301e-01
-4.444521293044090271e-02
3.222998604178428650e-02
-6.273650377988815308e-02
-1.487501412630081177e-01
7.833807170391082764e-02
-5.061370134353637695e-02
5.075887590646743774e-02
1.121055101975798607e-03
-9.390443563461303711e-02
-9.221097081899642944e-02
-3.743932396173477173e-02
-4.930568858981132507e-03
-1.645146310329437256e-02
-1.636092215776443481e-01
4.606407508254051208e-02
-3.044749237596988678e-02
-6.420175731182098389e-02
6.812457740306854248e-02
2.566221952438354492e-01
-6.099120527505874634e-02
-1.005902886390686035e-01
-2.989263832569122314e-02
5.944686755537986755e-02
-1.937628388404846191e-01
1.594372242689132690e-01
-8.078163117170333862e-02
-1.063810139894485474e-01
7.126737385988235474e-03
-1.194122582674026489e-01
-5.678737163543701172e-02
-2.387385070323944092e-01
-7.497705519199371338e-02
-6.563960760831832886e-02
-1.705584116280078888e-02
-8.943987637758255005e-02
-3.396715819835662842e-01
-2.278736680746078491e-01
-1.014484986662864685e-01
-4.830437898635864258e-02
-9.349165856838226318e-02
1.372639685869216919e-01
-2.532454133033752441e-01
-3.688863515853881836e-01
-7.367564737796783447e-02
-5.733237415552139282e-02
-1.530820038169622421e-02
-1.566643267869949341e-01
-6.192760914564132690e-02
-1.649821251630783081e-01
-1.189107298851013184e-01
8.155350387096405029e-02
-6.015146896243095398e-02
-7.329833507537841797e-02
-5.112731084227561951e-02
-3.504975931718945503e-03
-4.056821763515472412e-02
-4.800077527761459351e-02
2.731592394411563873e-02
-7.778427680023014545e-04
-2.646943740546703339e-02
-9.825241751968860626e-03
-5.090454965829849243e-02
-3.239059448242187500e-02
5.172095447778701782e-02
-6.152207776904106140e-02
-3.623488917946815491e-02
4.462995007634162903e-02
1.542731653898954391e-02
-3.635215014219284058e-02
7.933313027024269104e-03
3.421172127127647400e-02
7.496461272239685059e-02
-3.167031332850456238e-02
4.119698330760002136e-02
-4.168403893709182739e-02
-3.641439601778984070e-02
-1.076481938362121582e-01
3.647779673337936401e-02
6.182010401971638203e-04
6.511332932859659195e-03
1.265677344053983688e-02
-3.501967713236808777e-02
5.963217467069625854e-02
1.589339412748813629e-02
-1.085268333554267883e-02
3.281007334589958191e-02
-7.931368798017501831e-02
-5.967805162072181702e-02
-5.053935945034027100e-02
5.204636603593826294e-02
4.624107480049133301e-02
-4.710217006504535675e-03
3.073143772780895233e-02
6.038580904714763165e-04
3.803205490112304688e-02
4.920087754726409912e-02
3.860272467136383057e-02
4.565526545047760010e-02
3.946001827716827393e-02
-1.303039491176605225e-02
-8.110002428293228149e-02
-1.174229979515075684e-01
1.687606796622276306e-02
-2.591218799352645874e-02
-1.073390617966651917e-02
4.992198571562767029e-02
2.746781706809997559e-02
-6.622712593525648117e-03
2.526172995567321777e-02
-5.704112816601991653e-03
4.073725640773773193e-02
-3.235100209712982178e-02
6.732037663459777832e-02
-4.426265507936477661e-02
-7.163661532104015350e-03
4.387544468045234680e-02
4.066010937094688416e-03
6.063707917928695679e-02
-5.704222992062568665e-02
-4.235817119479179382e-02
-2.849208191037178040e-02
-1.573566161096096039e-02
-1.233950350433588028e-02
-5.489344522356987000e-02
4.738118499517440796e-02
8.387899957597255707e-03
1.138537004590034485e-02
-5.504492670297622681e-02
5.157104879617691040e-02
-2.393534407019615173e-02
-1.656675594858825207e-03
2.229198813438415527e-02
2.331389300525188446e-02
-5.862040817737579346e-02
3.787453472614288330e-02
-4.295270889997482300e-02
6.852677464485168457e-02
-1.083145216107368469e-01
8.650309592485427856e-02
3.899902105331420898e-02
1.136161969043314457e-03
2.870770916342735291e-02
2.299072407186031342e-02
-4.415272176265716553e-02
3.146805986762046814e-02
-1.892197318375110626e-02
4.809207282960414886e-03
6.299781799316406250e-02
3.037430904805660248e-02
-1.925253868103027344e-02
-2.847244031727313995e-02
4.179606586694717407e-02
1.223041024059057236e-02
-5.065914243459701538e-02
8.628252148628234863e-02
3.164120763540267944e-02
-2.089301683008670807e-02
2.103897975757718086e-03
-6.528569012880325317e-02
2.739547751843929291e-02
1.396682858467102051e-02
3.488570079207420349e-02
4.014019668102264404e-02
-7.046849280595779419e-02
2.911456488072872162e-02
2.947732247412204742e-02
7.106363773345947266e-03
1.155709847807884216e-02
7.013379037380218506e-02
-2.277698367834091187e-02
-5.110916867852210999e-02
-2.642946504056453705e-02
-2.480752533301711082e-03
6.919215619564056396e-02
4.048528894782066345e-02
2.079799398779869080e-02
2.810690365731716156e-02
-7.524190843105316162e-02
-6.624393165111541748e-02
3.554989397525787354e-02
-4.852134734392166138e-02
1.519284397363662720e-02
3.140116035938262939e-01
2.281857132911682129e-01
1.651418395340442657e-02
-1.267243787879124284e-04
7.476323843002319336e-02
-1.073011606931686401e-01
-1.675143837928771973e-01
-2.710737474262714386e-02
-1.669310480356216431e-01
-1.145958453416824341e-01
3.694344311952590942e-02
7.698416709899902344e-02
1.494467705488204956e-01
-9.280310571193695068e-02
2.005649358034133911e-01
2.438484504818916321e-02
1.013273671269416809e-01
3.801698237657546997e-02
-1.688843816518783569e-01
6.635671854019165039e-02
-4.258549809455871582e-01
-9.272551536560058594e-02
3.266619145870208740e-01
-3.517939150333404541e-02
3.192247822880744934e-02
1.739052683115005493e-01
1.136618480086326599e-01
7.555693387985229492e-02
-9.717219509184360504e-03
-5.818796530365943909e-02
1.041500195860862732e-01
-3.810634091496467590e-02
5.505628138780593872e-02
-1.701134443283081055e-02
-8.229283615946769714e-03
1.158205233514308929e-02
9.025809168815612793e-02
1.056068390607833862e-01
-6.467992812395095825e-02
-2.667406201362609863e-02
-4.609744995832443237e-02
2.784915827214717865e-02
2.564496360719203949e-02
-2.486318908631801605e-02
-1.159397438168525696e-01
4.414003714919090271e-02
-2.960950694978237152e-02
-3.978632390499114990e-02
-4.690664261579513550e-02
5.921297147870063782e-02
-5.672346800565719604e-02
-9.002026170492172241e-03
1.992970332503318787e-02
-4.008103534579277039e-02
-6.669519096612930298e-02
4.192897677421569824e-02
-1.813357509672641754e-02
-8.046539127826690674e-02
2.462420240044593811e-02
-3.523496538400650024e-02
5.228959396481513977e-02
-2.372610010206699371e-02
7.833217084407806396e-02
-4.399412777274847031e-03
3.643053025007247925e-02
-5.709778144955635071e-02
5.913050472736358643e-02
-7.482123374938964844e-02
1.281529385596513748e-02
-2.476271241903305054e-03
-5.597488954663276672e-02
6.934116780757904053e-02
-2.882307022809982300e-02
-7.544945180416107178e-02
1.589933596551418304e-02
1.236669868230819702e-01
-4.317289963364601135e-02
6.908983737230300903e-02
-2.699463814496994019e-02
-3.918074537068605423e-03
-1.740526035428047180e-02
-5.474427714943885803e-02
-6.055848207324743271e-03
-9.385239332914352417e-02
2.774820663034915924e-02
-6.142324209213256836e-02
-4.408534988760948181e-02
-2.183807194232940674e-01
5.151785910129547119e-02
1.938244793564081192e-03
-4.699908196926116943e-02
-2.359580993652343750e-02
1.810269802808761597e-02
-1.420524269342422485e-01
8.544117957353591919e-02
-3.473395854234695435e-02
2.807200700044631958e-02
-4.321376234292984009e-02
2.404501289129257202e-02
6.258133053779602051e-02
4.190742969512939453e-02
-2.327620238065719604e-02
-4.561384767293930054e-02
7.445634342730045319e-03
-2.654774114489555359e-02
4.114212095737457275e-02
3.023945912718772888e-02
4.304018989205360413e-02
-5.053355544805526733e-02
6.468520313501358032e-02
6.453941017389297485e-02
9.597552567720413208e-02
-2.230889722704887390e-02
6.496238708496093750e-02
7.980723679065704346e-02
6.567126512527465820e-02
4.004213958978652954e-03
-2.054662257432937622e-02
2.475149743258953094e-02
2.415064256638288498e-03
-2.222592569887638092e-02
4.259788617491722107e-02
1.285229250788688660e-02
-9.495657682418823242e-02
2.074799500405788422e-02
1.574462093412876129e-02
-1.478129415772855282e-03
7.202916778624057770e-03
4.165037721395492554e-02
-3.270571678876876831e-02
7.280948758125305176e-02
-5.555126816034317017e-02
-5.503728240728378296e-02
4.964242875576019287e-02
-7.198163121938705444e-02
-5.194728821516036987e-02
-4.980387911200523376e-02
1.245361100882291794e-02
-1.072535105049610138e-02
-1.692826277576386929e-03
2.128782123327255249e-02
6.262030452489852905e-02
7.643148303031921387e-02
-5.218456964939832687e-03
5.005015805363655090e-02
4.354278743267059326e-02
-6.336891651153564453e-02
-4.267974570393562317e-02
-7.544044870883226395e-03
1.504847593605518341e-02
3.060887381434440613e-02
-8.425845205783843994e-02
-5.615396052598953247e-02
3.396522998809814453e-02
-9.293392649851739407e-04
-1.269752997905015945e-02
-6.893311440944671631e-02
-1.146215498447418213e-01
-1.332727842964231968e-03
1.419495344161987305e-01
-8.030885457992553711e-01
-1.790523827075958252e-01
1.031952351331710815e-01
2.564624883234500885e-02
-3.617040580138564110e-03
9.308750927448272705e-02
2.216977626085281372e-01
7.565475255250930786e-02
-1.513980096206068993e-03
9.873376041650772095e-02
6.597284227609634399e-04
-5.846093595027923584e-02
1.472462993115186691e-02
1.360985357314348221e-02
-1.168061420321464539e-01
1.809024214744567871e-01
9.776399284601211548e-02
6.199972704052925110e-02
1.007162854075431824e-01
1.952853240072727203e-02
2.521355152130126953e-01
2.382074296474456787e-01
-9.324980527162551880e-02
1.182293817400932312e-01
-2.691673859953880310e-02
-6.368332356214523315e-02
-4.383489117026329041e-02
-6.884512025862932205e-03
-2.665997017174959183e-04
1.232438907027244568e-01
1.037786155939102173e-01
2.180776931345462799e-02
-4.707946628332138062e-02
3.238220885396003723e-02
-2.557214908301830292e-02
-3.800676390528678894e-02
-5.544123053550720215e-02
4.870365560054779053e-02
-6.283408403396606445e-02
6.948325037956237793e-02
1.275255903601646423e-02
5.936937406659126282e-02
-2.400422655045986176e-02
-9.280953556299209595e-03
-1.007015537470579147e-02
5.283721536397933960e-02
7.291988003998994827e-03
-1.465926133096218109e-02
5.031310766935348511e-02
-1.820283755660057068e-02
1.228729449212551117e-02
-1.306212320923805237e-02
7.154298573732376099e-02
-2.585765533149242401e-02
5.808135494589805603e-02
-2.720906399190425873e-02
-7.692583650350570679e-02
-3.096020407974720001e-02
3.336343914270401001e-02
-1.561349723488092422e-02
-9.138292074203491211e-02
7.033074647188186646e-02
5.551626160740852356e-02
-1.684938557446002960e-02
1.245470717549324036e-01
-7.841418683528900146e-02
-1.124246641993522644e-01
-3.508339822292327881e-02
-7.606098800897598267e-02
-1.125550791621208191e-01
-2.061566524207592010e-02
-1.231681928038597107e-01
2.446855418384075165e-02
9.634407609701156616e-02
8.404945582151412964e-02
-2.201284840703010559e-02
2.466315031051635742e-02
1.047348827123641968e-01
-8.462002500891685486e-03
9.359591640532016754e-03
-5.625877156853675842e-02
-4.519303143024444580e-02
-3.092986717820167542e-02
-1.309818588197231293e-02
7.011065632104873657e-02
-9.381305426359176636e-03
9.184739552438259125e-03
8.780522644519805908e-02
-7.725777477025985718e-02
-4.755083471536636353e-03
-2.730306051671504974e-02
4.665255174040794373e-02
7.767385244369506836e-02
4.919199645519256592e-02
-9.389639832079410553e-03
3.626054152846336365e-02
-9.832610376179218292e-04
3.743383660912513733e-02
1.561775617301464081e-02
-3.705374523997306824e-02
2.916408004239201546e-03
-3.111753240227699280e-02
-6.189849972724914551e-02
3.282868117094039917e-02
3.553751483559608459e-02
-1.538885850459337234e-02
-9.960311651229858398e-02
-1.165334600955247879e-02
-1.239939685910940170e-02
-6.715759634971618652e-02
-4.846015945076942444e-02
-6.321555376052856445e-02
-9.544249624013900757e-03
3.604940325021743774e-02
3.756588324904441833e-02
-2.912711724638938904e-02
-9.576814249157905579e-03
-6.423877924680709839e-02
-2.311010286211967468e-02
7.116562686860561371e-03
-7.074180990457534790e-02
-5.271923169493675232e-02
-9.556005708873271942e-03
-7.146561145782470703e-02
-2.806109003722667694e-02
6.041433289647102356e-02
-6.368528306484222412e-02
4.142777621746063232e-02
8.927876129746437073e-03
4.573069885373115540e-02
-6.540013104677200317e-02
7.161111105233430862e-03
6.961463368497788906e-04
-8.295775204896926880e-02
4.454747249837964773e-04
2.294092252850532532e-02
-8.866165578365325928e-02
-5.451282486319541931e-02
3.203317523002624512e-02
3.144918009638786316e-02
-5.141032859683036804e-03
-1.734227687120437622e-02
-4.320643376559019089e-03
-1.269719153642654419e-01
-2.965129725635051727e-02
1.883862353861331940e-02
3.634032607078552246e-02
-7.170226424932479858e-02
-2.336362563073635101e-02
4.583997651934623718e-03
3.205198794603347778e-02
4.651129990816116333e-02
-2.418929338455200195e-02
-1.952970586717128754e-02
-7.363612949848175049e-02
2.494156127795577049e-03
-4.727567732334136963e-02
-2.997070923447608948e-02
3.208671882748603821e-02
-1.434100121259689331e-01
1.117825284600257874e-01
1.107572950422763824e-02
3.586876392364501953e-02
-1.218362059444189072e-02
1.264635566622018814e-02
-8.069486171007156372e-02
-1.730193048715591431e-01
-3.640800341963768005e-02
2.243399992585182190e-02
3.497948125004768372e-02
-1.820615306496620178e-02
1.026557947625406086e-05
6.523321568965911865e-02
1.835956871509552002e-01
1.156809553503990173e-01
1.092535257339477539e-02
7.467950694262981415e-03
1.112102810293436050e-02
5.807916168123483658e-03
1.646009981632232666e-01
-3.306259810924530029e-01
-7.060614973306655884e-02
1.367165744304656982e-01
2.674423716962337494e-02
1.194676905870437622e-01
7.835940271615982056e-02
1.675660349428653717e-02
7.042691111564636230e-02
1.381754758767783642e-03
1.357300132513046265e-01
1.727263927459716797e-01
6.568060815334320068e-02
3.770001977682113647e-02
-1.916618552058935165e-03
2.066112495958805084e-02
-6.772946566343307495e-02
-6.428664783015847206e-04
-9.358030743896961212e-03
-5.326863005757331848e-02
-1.768982782959938049e-02
1.897006412036716938e-03
3.153569623827934265e-02
-2.930154278874397278e-02
-7.779562473297119141e-02
-6.019084900617599487e-02
-5.490828305482864380e-02
5.475587770342826843e-02
-2.241691946983337402e-02
4.111618176102638245e-02
2.771784365177154541e-02
2.947419695556163788e-02
6.457991432398557663e-03
-6.940070539712905884e-03
-5.098700523376464844e-02
1.788133196532726288e-02
-1.800891011953353882e-02
-1.094297170639038086e-01
-2.524388954043388367e-02
-6.042153760790824890e-02
1.046360842883586884e-02
4.631724208593368530e-02
-4.615600779652595520e-02
-1.451061666011810303e-02
-1.451960206031799316e-01
-2.943705022335052490e-02
-1.362255215644836426e-01
-2.283030422404408455e-03
-3.651633486151695251e-02
-1.442744489759206772e-02
6.698566675186157227e-02
-1.282503455877304077e-01
2.218481898307800293e-02
6.762843579053878784e-02
-1.277687028050422668e-02
3.226161003112792969e-02
8.309669047594070435e-02
-6.796432286500930786e-02
-1.548754330724477768e-02
4.582355171442031860e-02
-8.272226899862289429e-03
8.709780126810073853e-02
4.959698393940925598e-02
5.751953274011611938e-02
3.604120761156082153e-02
-5.661068111658096313e-02
-8.885028213262557983e-02
1.184395924210548401e-01
1.099629402160644531e-01
-6.121991202235221863e-02
3.520330786705017090e-02
-4.133571684360504150e-02
-8.866827189922332764e-02
-6.393839418888092041e-02
-6.260826438665390015e-02
8.220426738262176514e-02
-2.011542022228240967e-02
3.795602917671203613e-02
-1.108249425888061523e-01
-1.090840250253677368e-01
-5.524688586592674255e-02
2.142461389303207397e-02
8.390020579099655151e-03
-8.891245722770690918e-02
-1.885033585131168365e-02
3.217906877398490906e-02
4.079563077539205551e-03
-8.644624031148850918e-04
3.625052049756050110e-02
-4.056080058217048645e-02
-3.709746990352869034e-03
4.717618227005004883e-02
-2.794519066810607910e-02
-2.363238856196403503e-02
-3.740084590390324593e-03
4.908535629510879517e-02
7.132731843739748001e-03
2.489471063017845154e-02
3.264674218371510506e-03
3.755114600062370300e-02
1.075544394552707672e-02
-3.535833209753036499e-02
6.563893705606460571e-02
5.477057397365570068e-02
5.890275537967681885e-02
4.431848414242267609e-03
1.866366714239120483e-03
8.921150863170623779e-02
-1.471120864152908325e-01
-1.014860160648822784e-02
-4.415820538997650146e-02
-3.147057816386222839e-02
-6.719490885734558105e-02
-7.964745908975601196e-02
-2.565664984285831451e-02
-1.837176829576492310e-01
-3.887946717441082001e-03
-6.878273189067840576e-02
-3.783027082681655884e-02
-1.725729741156101227e-02
7.524313777685165405e-02
-1.692224107682704926e-02
6.669276952743530273e-02
6.830674409866333008e-02
1.604990847408771515e-02
3.778469190001487732e-02
-2.741647697985172272e-02
1.843638159334659576e-02
-5.522640794515609741e-02
7.579764723777770996e-02
-1.578516960144042969e-01
7.045732438564300537e-02
-5.805883929133415222e-02
-6.869316846132278442e-02
1.657932437956333160e-02
5.724006518721580505e-02
-7.500044256448745728e-02
-1.051700860261917114e-01
-5.450598895549774170e-02
-2.694742055609822273e-03
-2.424275577068328857e-01
-3.750105202198028564e-01
-2.071265280246734619e-01
-4.187439754605293274e-02
-1.934530772268772125e-02
-7.943471521139144897e-02
1.124682277441024780e-01
1.292067468166351318e-01
2.263613231480121613e-02
1.873398721218109131e-01
1.700651273131370544e-02
7.238893955945968628e-02
2.058901591226458549e-03
-7.136170566082000732e-02
-6.705717742443084717e-02
-8.114650845527648926e-02
-9.516166150569915771e-02
-3.341970965266227722e-02
-1.212438270449638367e-01
-8.370541781187057495e-02
5.793739110231399536e-02
9.286011755466461182e-02
-5.306299775838851929e-02
2.498135343194007874e-02
-3.932639583945274353e-02
-1.201303079724311829e-01
-1.621727049350738525e-01
1.116687208414077759e-01
-3.571619838476181030e-02
4.074669256806373596e-02
-1.445870846509933472e-01
-6.601413339376449585e-02
5.242963507771492004e-02
4.780725017189979553e-02
-5.297432467341423035e-02
7.605931162834167480e-02
2.243056520819664001e-02
-1.287662331014871597e-02
-6.145151704549789429e-02
1.001999620348215103e-02
-4.471359774470329285e-02
3.293567150831222534e-02
-1.608210429549217224e-02
-5.218247324228286743e-02
-6.272048503160476685e-02
-3.247131779789924622e-02
-9.381333738565444946e-02
5.560797080397605896e-02
-6.690131127834320068e-02
4.404724389314651489e-02
3.742144256830215454e-02
1.657389849424362183e-02
-8.790289051830768585e-03
-8.392018824815750122e-02
-9.681419469416141510e-03
1.859933603554964066e-03
3.372418461367487907e-03
4.596716910600662231e-02
1.822048053145408630e-02
-8.596634864807128906e-02
2.140243723988533020e-02
4.046860337257385254e-02
-2.145821601152420044e-02
1.290272455662488937e-02
1.403534039855003357e-02
7.260230835527181625e-03
-2.465669997036457062e-02
-1.122582778334617615e-01
-6.635350733995437622e-02
5.633976310491561890e-02
2.284537851810455322e-01
1.120512634515762329e-01
-9.122556447982788086e-02
6.849672645330429077e-02
4.655669629573822021e-02
-7.839517295360565186e-02
-2.560438588261604309e-02
-9.263545274734497070e-02
8.030928671360015869e-03
-1.658993028104305267e-02
2.760315500199794769e-02
3.627965692430734634e-03
-1.784000918269157410e-02
8.050522208213806152e-02
-5.207347497344017029e-02
-2.282184176146984100e-02
-7.643914222717285156e-02
7.830989547073841095e-03
-1.974511332809925079e-02
5.605924874544143677e-02
2.111999783664941788e-03
-7.302834093570709229e-02
-2.655952423810958862e-02
-4.333205148577690125e-02
9.603004902601242065e-02
-4.351617023348808289e-02
-3.355436772108078003e-02
-4.927925299853086472e-03
-2.482028864324092865e-02
4.929937794804573059e-02
-5.227535963058471680e-02
-7.170923054218292236e-02
3.378284350037574768e-02
-5.139938369393348694e-02
-4.133938997983932495e-02
9.036731906235218048e-03
3.252791240811347961e-02
-7.858196273446083069e-03
-6.308119278401136398e-03
-3.809675108641386032e-03
3.490556031465530396e-02
-6.656543910503387451e-02
7.075742632150650024e-02
1.133692823350429535e-02
1.457247044891119003e-02
1.664986461400985718e-02
-5.338853597640991211e-02
6.808137986809015274e-03
-8.171525597572326660e-02
-1.639318070374429226e-03
-6.880167126655578613e-02
-8.035383373498916626e-02
3.840776905417442322e-02
5.167310312390327454e-02
2.907716203480958939e-03
-4.169704765081405640e-02
4.425583034753799438e-02
2.180181676521897316e-03
-4.057323676533997059e-04
5.601816251873970032e-02
3.040049970149993896e-02
5.251494795083999634e-02
-8.922954648733139038e-02
6.486550718545913696e-02
2.194801121950149536e-01
9.129925072193145752e-02
-9.165398776531219482e-02
1.411340385675430298e-01
6.427656859159469604e-02
-3.061456419527530670e-02
1.008955854922533035e-02
-2.275572903454303741e-02
-1.084461286664009094e-01
3.564414009451866150e-02
-6.616219133138656616e-02
2.058973722159862518e-02
-5.425230786204338074e-02
6.415519118309020996e-02
-4.344661533832550049e-02
-3.448048606514930725e-02
-1.175859123468399048e-01
-2.218004688620567322e-02
9.792746603488922119e-02
-5.435722693800926208e-02
-5.097667127847671509e-02
-1.351139545440673828e-01
4.322675615549087524e-02
1.028583198785781860e-02
1.908123679459095001e-02
-1.288266628980636597e-01
-2.458598762750625610e-01
-3.284194767475128174e-01
-4.139527678489685059e-01
1.799321621656417847e-01
-3.419885411858558655e-02
4.620692133903503418e-02
9.750914573669433594e-02
1.760710775852203369e-01
1.064797118306159973e-01
6.338787823915481567e-02
9.157494455575942993e-02
4.310432076454162598e-02
1.326883882284164429e-01
6.298937648534774780e-02
4.301926493644714355e-02
2.936853282153606415e-02
1.163153722882270813e-01
2.540522068738937378e-02
-4.816156253218650818e-02
7.794905453920364380e-02
3.916487470269203186e-02
1.071136742830276489e-01
1.386763602495193481e-01
-1.084921434521675110e-01
-5.981174111366271973e-02
1.347334086894989014e-01
-3.181633949279785156e-01
8.840987831354141235e-02
-2.909887582063674927e-02
1.439972873777151108e-02
-3.784017264842987061e-02
6.328291445970535278e-02
5.767678096890449524e-02
-5.903206020593643188e-02
-7.434394210577011108e-02
-6.936214119195938110e-02
-9.654895961284637451e-02
6.276019662618637085e-02
6.156881339848041534e-03
-3.299362212419509888e-02
-3.711486607789993286e-02
-9.505131281912326813e-03
-3.289554966613650322e-03
6.407249718904495239e-02
-2.445583231747150421e-02
-1.525735855102539062e-01
1.905743032693862915e-02
-7.144162803888320923e-02
-9.954252094030380249e-02
-1.318559609353542328e-02
5.187916383147239685e-02
-9.244506061077117920e-02
-3.996465355157852173e-02
2.488216944038867950e-02
5.287777632474899292e-03
2.787774987518787384e-02
3.924873098731040955e-02
4.954842850565910339e-02
-2.900826744735240936e-02
2.136935293674468994e-02
5.134980753064155579e-02
7.705234922468662262e-03
9.929654747247695923e-02
6.365019828081130981e-02
-2.488059364259243011e-02
-3.932508453726768494e-02
1.020226031541824341e-01
-7.022391259670257568e-02
1.626354008913040161e-01
-1.779512851499021053e-03
-2.942842431366443634e-02
7.711004465818405151e-02
-1.120526194572448730e-01
1.154786068946123123e-02
1.044131442904472351e-01
-4.282307997345924377e-02
4.507801309227943420e-02
-4.435233771800994873e-02
-1.514308601617813110e-01
1.114026061259210110e-03
5.591478198766708374e-02
-1.189978420734405518e-02
-2.394168451428413391e-02
-2.924337796866893768e-02
-1.671535428613424301e-03
2.743118070065975189e-02
3.343901783227920532e-02
-7.755838334560394287e-02
-1.019304394721984863e-01
-6.863484531641006470e-02
-5.886659398674964905e-02
-2.834776975214481354e-02
-2.068087086081504822e-02
1.949165761470794678e-02
1.895705424249172211e-02
-3.659176453948020935e-02
8.241893351078033447e-02
-1.291558891534805298e-02
-4.979775473475456238e-02
-2.319438010454177856e-02
5.164751783013343811e-03
-3.347253054380416870e-02
4.633867368102073669e-02
1.406099181622266769e-02
1.616549678146839142e-02
5.710063874721527100e-02
-4.323217086493968964e-03
2.318137884140014648e-02
3.460597619414329529e-02
-1.205077320337295532e-01
-1.932846941053867340e-02
1.193084008991718292e-02
-1.582957775099202991e-04
2.248877845704555511e-02
4.965580999851226807e-02
2.780071459710597992e-02
-7.448123395442962646e-02
-6.962271034717559814e-02
3.027375228703022003e-02
2.877830341458320618e-02
1.085573434829711914e-02
2.223377116024494171e-02
1.026972290128469467e-02
-7.598264515399932861e-02
-7.065424323081970215e-02
-2.487404271960258484e-02
8.328317850828170776e-02
-5.612131208181381226e-02
5.540909245610237122e-02
9.545332938432693481e-02
5.711916089057922363e-02
5.530614405870437622e-03
-7.034927606582641602e-03
2.361777424812316895e-02
5.783882364630699158e-02
5.917042866349220276e-02
-4.998896270990371704e-02
-3.995974361896514893e-02
4.031629860401153564e-02
-8.000933378934860229e-02
-4.823875799775123596e-02
-8.019888401031494141e-02
-2.236544191837310791e-01
3.344199806451797485e-02
-1.136427223682403564e-01
-8.702322840690612793e-02
-3.142444789409637451e-02
4.714203253388404846e-02
-1.354221161454916000e-02
-7.605455815792083740e-02
1.062257736921310425e-01
-1.545726903714239597e-03
9.792298078536987305e-02
-6.838607043027877808e-02
-8.465328067541122437e-02
-1.061061620712280273e-01
2.675372734665870667e-02
-1.739944145083427429e-02
3.586877137422561646e-02
2.238720841705799103e-02
5.439510568976402283e-02
2.425376623868942261e-01
7.141889631748199463e-02
-9.653322398662567139e-03
4.145760089159011841e-02
6.606638431549072266e-02
-1.414589881896972656e-01
-3.056023083627223969e-02
-8.928747475147247314e-02
-3.610166162252426147e-02
3.291308879852294922e-02
-3.339738817885518074e-03
2.769224904477596283e-02
-7.786504179239273071e-02
9.044161997735500336e-03
2.265494083985686302e-03
-8.164221048355102539e-02
3.815720230340957642e-02
3.740509599447250366e-02
1.552015841007232666e-01
3.738531842827796936e-02
-1.066925227642059326e-01
-3.563227131962776184e-02
5.303181242197751999e-03
3.189323842525482178e-02
9.666758775711059570e-02
4.094839841127395630e-02
-7.260718941688537598e-02
-4.775318875908851624e-02
1.309090014547109604e-02
-1.331658917479217052e-03
5.255645513534545898e-02
5.599910765886306763e-02
4.060951992869377136e-02
1.366513501852750778e-02
-4.869287461042404175e-02
3.036601282656192780e-02
2.513240091502666473e-02
-4.732667654752731323e-02
-1.285034697502851486e-02
-1.927863061428070068e-02
-2.096777781844139099e-02
9.736593067646026611e-02
-4.977890849113464355e-02
-1.200223192572593689e-01
-1.397265344858169556e-01
-4.225702583789825439e-02
-8.997020870447158813e-02
-7.750655710697174072e-02
1.808284223079681396e-02
-8.010237477719783783e-03
3.783116862177848816e-02
4.416249692440032959e-02
-5.911472067236900330e-02
4.633576795458793640e-02
-6.617192924022674561e-02
1.142857689410448074e-02
4.155122488737106323e-02
1.414502877742052078e-02
-1.231173519045114517e-03
-1.095156967639923096e-01
4.779065493494272232e-03
2.423202432692050934e-02
3.722508624196052551e-02
1.065608952194452286e-02
-5.231051892042160034e-02
-9.544610977172851562e-02
3.317518904805183411e-02
-4.782472271472215652e-03
1.066263392567634583e-01
3.285111114382743835e-02
5.145426467061042786e-02
-3.489737957715988159e-02
2.192767523229122162e-02
-4.892301931977272034e-02
-1.286548376083374023e-02
-5.207071080803871155e-02
7.791847735643386841e-02
-5.356846377253532410e-02
-6.874504685401916504e-02
-1.431582123041152954e-01
-8.183974027633666992e-02
1.735676452517509460e-02
4.709226265549659729e-02
3.601291775703430176e-02
1.295931579079478979e-04
-6.957424338907003403e-03
-3.815116733312606812e-02
-6.782522052526473999e-02
-1.247621607035398483e-02
-3.763867542147636414e-02
1.972064375877380371e-02
-1.010618507862091064e-01
1.959536410868167877e-02
-4.602727293968200684e-02
9.534170478582382202e-02
-1.607454195618629456e-02
1.075912499800324440e-03
-8.390303701162338257e-02
5.000941455364227295e-02
5.804152786731719971e-02
2.303976798430085182e-03
-5.433347448706626892e-02
4.225205630064010620e-03
-4.821155220270156860e-02
3.599729016423225403e-02
-3.302389010787010193e-02
-8.974045515060424805e-02
-1.173603534698486328e-02
-1.651459187269210815e-01
-8.304513990879058838e-02
-7.252576947212219238e-02
-8.119382709264755249e-02
8.152975887060165405e-02
3.569605946540832520e-02
3.214367479085922241e-02
3.757192194461822510e-02
-4.006879404187202454e-02
1.049946993589401245e-01
1.346167083829641342e-02
-1.555131631903350353e-03
-8.180516958236694336e-02
2.250393852591514587e-02
5.020054057240486145e-02
-1.051936000585556030e-01
-8.610527962446212769e-02
-1.499337377026677132e-03
-3.762959036976099014e-03
-1.045052409172058105e-01
-4.245947301387786865e-02
-5.280593037605285645e-02
-4.196082800626754761e-02
2.060569357126951218e-03
8.545873314142227173e-02
1.261549815535545349e-02
-3.264847770333290100e-02
-1.309461891651153564e-01
3.237244859337806702e-02
2.761404216289520264e-02
4.153010621666908264e-02
-6.978533416986465454e-02
3.702678903937339783e-02
-2.512556612491607666e-01
-2.504086121916770935e-02
-2.982264384627342224e-02
-9.986742585897445679e-02
7.103691995143890381e-02
-3.524004667997360229e-02
-5.378482118248939514e-02
-3.344475105404853821e-02
-4.085417836904525757e-03
-1.744130067527294159e-02
1.626623123884201050e-01
-1.212584450840950012e-01
-6.176730617880821228e-02
-5.152487382292747498e-02
-6.632546335458755493e-02
3.717061877250671387e-02
6.862671673297882080e-02
3.441664576530456543e-02
-3.995780646800994873e-01
-4.775618016719818115e-01
-6.786224246025085449e-02
1.076476424932479858e-01
-8.821882307529449463e-03
7.987064868211746216e-02
-3.247826918959617615e-02
-8.673191070556640625e-02
-5.789011716842651367e-02
-1.443184465169906616e-01
1.619793027639389038e-01
5.551775172352790833e-02
-4.671871662139892578e-02
-1.724218428134918213e-01
6.288486719131469727e-02
6.183034926652908325e-02
1.316478103399276733e-01
7.626678794622421265e-02
2.102858275175094604e-01
3.643570095300674438e-02
3.240408748388290405e-02
-2.273266166448593140e-01
1.868462115526199341e-01
7.416549324989318848e-02
2.149701565504074097e-01
1.463941577821969986e-02
5.481034517288208008e-02
-1.826114952564239502e-03
-2.935797674581408501e-03
-1.403043419122695923e-01
1.411320418119430542e-01
4.812759160995483398e-02
-4.669711738824844360e-02
3.643730282783508301e-02
4.224043805152177811e-03
1.578355673700571060e-03
-6.027017906308174133e-02
-4.525784868746995926e-03
3.918375074863433838e-02
-5.952839273959398270e-03
6.811526417732238770e-02
-8.530262112617492676e-02
-6.099436897784471512e-03
-2.407907135784626007e-02
-2.672502212226390839e-02
-3.934251889586448669e-02
-1.563273370265960693e-02
-4.035702720284461975e-02
-3.117337077856063843e-02
-3.245919197797775269e-02
-9.832969307899475098e-02
-6.753887981176376343e-02
-6.940437853336334229e-02
-5.555269122123718262e-02
-5.570247024297714233e-02
6.997752189636230469e-02
-3.997453302145004272e-02
-7.883521914482116699e-02
7.045482099056243896e-02
4.963980615139007568e-02
4.055561497807502747e-02
3.171627968549728394e-02
-1.035353094339370728e-01
-5.601217225193977356e-02
3.800464794039726257e-02
-3.913865890353918076e-03
-2.832068130373954773e-02
-6.749452650547027588e-02
-7.459427416324615479e-02
-1.091880500316619873e-01
-5.304522812366485596e-03
-1.172137446701526642e-02
-3.399984166026115417e-02
-5.426507443189620972e-02
-3.580088913440704346e-02
-2.043697237968444824e-02
-1.538057718425989151e-02
9.643614292144775391e-02
5.135691538453102112e-02
6.675698608160018921e-02
7.887722551822662354e-02
-3.191276639699935913e-02
-3.132390324026346207e-03
1.508618891239166260e-02
5.243371706455945969e-03
9.457311779260635376e-02
-5.142344534397125244e-02
-3.872998058795928955e-02
6.339862942695617676e-02
3.367474302649497986e-02
-6.302570551633834839e-02
7.167016156017780304e-03
1.397741376422345638e-03
1.010104268789291382e-01
-1.139187440276145935e-01
3.876277059316635132e-02
-2.293021790683269501e-02
-6.627760827541351318e-02
-8.886986412107944489e-03
1.246152352541685104e-02
-3.969148918986320496e-02
-6.048984453082084656e-02
4.510998353362083435e-02
1.297063380479812622e-02
6.756374496035277843e-04
-1.359470933675765991e-01
-5.186277907341718674e-03
1.639481261372566223e-02
-9.612356312572956085e-03
-1.543706934899091721e-02
2.355686947703361511e-02
-6.149748340249061584e-02
1.177792437374591827e-02
-6.526745110750198364e-02
-1.005086377263069153e-01
2.040188387036323547e-02
-2.959564514458179474e-02
4.593446105718612671e-02
-9.225203841924667358e-02
-4.378097131848335266e-02
-7.545118033885955811e-02
2.901818230748176575e-02
2.479192800819873810e-03
-2.574917860329151154e-02
-1.096030995249748230e-01
-3.530202805995941162e-02
-6.721880286931991577e-02
9.979177266359329224e-03
-3.125266358256340027e-02
5.924586206674575806e-02
-5.847484618425369263e-02
-6.645858287811279297e-02
9.842804633080959320e-03
-7.991416007280349731e-02
6.962516810745000839e-03
-4.740764200687408447e-02
3.116319514811038971e-02
-1.174480840563774109e-01
-1.743904501199722290e-01
-8.738013356924057007e-02
-7.539970427751541138e-02
7.474046200513839722e-03
3.789594024419784546e-02
5.022873356938362122e-02
1.550314947962760925e-02
-7.437916938215494156e-03
4.575300961732864380e-02
-1.633524745702743530e-01
-6.846332550048828125e-02
-4.603069648146629333e-02
-1.617392003536224365e-01
-1.650518272072076797e-03
-4.392955452203750610e-02
-6.439958512783050537e-02
5.708962678909301758e-02
3.904253616929054260e-02
2.354939840734004974e-02
4.615231975913047791e-02
-8.429125696420669556e-02
-1.454859972000122070e-02
1.860037446022033691e-01
-1.453422009944915771e-01
2.129860222339630127e-01
-1.205941811203956604e-01
2.662172727286815643e-02
1.313251405954360962e-01
1.931990981101989746e-01
1.186261177062988281e-01
5.958129093050956726e-02
1.337796747684478760e-01
1.016428172588348389e-01
-1.039924565702676773e-02
8.529682457447052002e-02
3.138248808681964874e-03
2.873144298791885376e-02
5.909183248877525330e-02
-2.725839056074619293e-02
-1.034675631672143936e-02
-2.310761809349060059e-02
1.505919452756643295e-02
1.025862693786621094e-01
2.635816633701324463e-01
2.295387163758277893e-02
1.060907449573278427e-02
-8.992521464824676514e-02
5.907220765948295593e-02
1.255240291357040405e-01
7.701159454882144928e-03
1.117718871682882309e-02
-3.193794563412666321e-02
7.130860351026058197e-03
1.350120175629854202e-02
5.704849585890769958e-02
-1.586616272106766701e-03
1.281091384589672089e-02
-4.363287240266799927e-02
-4.682450369000434875e-02
-1.171161606907844543e-02
-3.891221061348915100e-02
-4.146814346313476562e-03
3.046097047626972198e-02
-4.631615802645683289e-02
8.804518729448318481e-02
-6.815642863512039185e-02
-9.274297952651977539e-02
2.862943895161151886e-02
2.544411271810531616e-02
-8.621525764465332031e-02
4.478582367300987244e-02
3.054189495742321014e-02
4.590277746319770813e-02
2.440194599330425262e-02
-4.560660570859909058e-02
-7.438607513904571533e-02
8.691847324371337891e-02
-5.394385382533073425e-02
1.395829468965530396e-01
-2.960452437400817871e-02
8.398528210818767548e-03
6.616914272308349609e-02
-2.196650765836238861e-02
-2.622440084815025330e-02
7.186630368232727051e-02
-3.818066790699958801e-02
-2.795092388987541199e-02
8.632641285657882690e-02
2.148519828915596008e-02
1.176306046545505524e-02
2.118949778378009796e-02
-7.744039595127105713e-02
-3.724547103047370911e-02
4.113382101058959961e-02
3.696607891470193863e-03
-1.042713690549135208e-02
-1.769861951470375061e-02
-7.392074912786483765e-02
-3.269761428236961365e-02
-2.720473101362586021e-03
8.680601418018341064e-02
-1.166974455118179321e-01
4.695997014641761780e-02
5.556231737136840820e-02
4.295288026332855225e-02
7.501579821109771729e-02
1.656329818069934845e-02
-4.962264746427536011e-02
-8.425380289554595947e-02
-8.373118937015533447e-02
-2.343400418758392334e-01
3.317989408969879150e-02
5.340537801384925842e-02
1.144559606909751892e-01
1.661040261387825012e-02
-4.127111751586198807e-03
-8.049732446670532227e-02
-5.810808017849922180e-02
-4.338050633668899536e-02
-6.289932876825332642e-03
4.494381602853536606e-03
5.304441321641206741e-03
7.260804623365402222e-02
-2.872863598167896271e-02
-7.742420583963394165e-02
2.662887331098318100e-03
1.258600968867540359e-02
7.946054637432098389e-02
-6.513299047946929932e-02
-5.416116490960121155e-02
7.705667521804571152e-03
3.901403024792671204e-02
5.382812023162841797e-02
-4.236643388867378235e-02
-6.249351054430007935e-02
2.259963750839233398e-02
-7.241966668516397476e-04
1.019473094493150711e-02
4.748916625976562500e-02
-6.422203034162521362e-02
-2.024141885340213776e-02
-7.583136111497879028e-02
1.885223537683486938e-01
2.786440216004848480e-02
5.271429568529129028e-02
-5.787926912307739258e-02
3.540561720728874207e-02
-4.929507523775100708e-02
1.513522267341613770e-01
1.822338998317718506e-02
4.223157465457916260e-02
-1.668236404657363892e-02
-2.583919465541839600e-02
-9.364296565763652325e-04
1.276324987411499023e-01
5.434715747833251953e-02
-1.039879918098449707e-01
-7.783198356628417969e-02
3.027776069939136505e-02
-9.133471548557281494e-02
9.484887123107910156e-02
-4.274232685565948486e-02
-6.368003785610198975e-02
-3.380868956446647644e-02
4.821036756038665771e-02
-9.062971919775009155e-02
-7.429839670658111572e-02
4.403350874781608582e-02
-5.733935162425041199e-02
-8.034362643957138062e-02
-3.341974690556526184e-02
7.968031615018844604e-02
3.473439067602157593e-02
-8.010201901197433472e-02
5.873535200953483582e-02
4.259669780731201172e-02
4.029983654618263245e-02
4.432298243045806885e-02
-7.168451696634292603e-02
8.832257986068725586e-02
1.294430047273635864e-01
1.430761162191629410e-02
-1.964399367570877075e-01
-6.991658210754394531e-01
-4.292111396789550781e-01
1.784550398588180542e-01
2.786416746675968170e-02
8.158965408802032471e-02
1.737144291400909424e-01
2.104091495275497437e-01
3.831782937049865723e-02
-9.184570983052253723e-03
2.063056826591491699e-01
1.087064817547798157e-01
1.294292137026786804e-02
-2.459146268665790558e-02
1.662727892398834229e-01
-6.348296254873275757e-02
1.554690897464752197e-01
9.367488324642181396e-02
3.476629406213760376e-02
1.409163028001785278e-01
1.476203948259353638e-01
1.173582598567008972e-01
3.599823117256164551e-01
-1.635089665651321411e-01
1.727273464202880859e-01
-9.740272164344787598e-02
-1.009965240955352783e-01
1.351867918856441975e-03
1.439160555601119995e-01
-8.942791819572448730e-02
1.673177331686019897e-01
2.544464729726314545e-02
-8.088681846857070923e-03
-3.244824409484863281e-01
5.547433719038963318e-02
-7.971630990505218506e-02
1.741348579525947571e-02
4.375876113772392273e-02
6.409206986427307129e-02
-2.637291513383388519e-02
3.514616563916206360e-02
5.744665861129760742e-02
-2.174063585698604584e-02
-1.822772435843944550e-02
4.787274450063705444e-02
6.573498249053955078e-02
-6.465893983840942383e-02
-1.184035278856754303e-02
5.807236582040786743e-02
3.801627829670906067e-02
7.394293695688247681e-02
-1.944120600819587708e-02
3.201720118522644043e-02
5.439400672912597656e-02
1.979327388107776642e-02
2.393895410932600498e-04
9.713707864284515381e-02
1.134583353996276855e-02
-7.269094139337539673e-02
6.202508509159088135e-02
-8.108741790056228638e-02
-6.238839775323867798e-02
5.729432031512260437e-02
-5.627496540546417236e-02
-5.195343121886253357e-02
3.899072483181953430e-02
1.224203631281852722e-01
-4.083368461579084396e-03
-1.212863344699144363e-02
-4.436535388231277466e-02
-9.689307771623134613e-03
-3.286119550466537476e-02
5.695903301239013672e-02
1.067330092191696167e-01
2.745991945266723633e-02
8.424882777035236359e-03
-4.760271869599819183e-03
3.863574564456939697e-02
-1.594107598066329956e-02
-1.106180250644683838e-01
1.723534986376762390e-02
2.011064253747463226e-02
-8.034481853246688843e-02
-5.568272247910499573e-02
3.148911148309707642e-02
6.649265438318252563e-02
-2.141536585986614227e-02
-2.235251478850841522e-02
-2.366746962070465088e-01
6.334332376718521118e-02
-2.153819426894187927e-02
3.489650785923004150e-02
-5.791237950325012207e-02
2.055067755281925201e-02
-1.862005293369293213e-01
-4.464793577790260315e-02
-1.780549250543117523e-02
-3.323067426681518555e-01
-6.146933510899543762e-02
4.101972654461860657e-02
-1.677680574357509613e-02
-8.844003081321716309e-02
8.677602559328079224e-02
1.198330521583557129e-02
1.918078400194644928e-02
-6.703671067953109741e-02
-6.166128814220428467e-02
7.807118352502584457e-03
-7.955301553010940552e-02
-8.385473862290382385e-03
-2.533916756510734558e-02
-4.670281708240509033e-02
5.129901692271232605e-02
2.300281822681427002e-02
6.219682842493057251e-02
2.186496369540691376e-02
-5.496367067098617554e-02
-7.154674967750906944e-04
1.143661141395568848e-01
-4.855915904045104980e-02
1.040827706456184387e-01
-3.219793736934661865e-02
5.320619419217109680e-02
3.904557600617408752e-02
6.777212023735046387e-02
-2.411216683685779572e-02
1.194364354014396667e-01
-3.166238591074943542e-02
-1.632933999644592404e-04
3.402982605621218681e-03
-1.677135378122329712e-02
1.474771066568791866e-03
4.534942656755447388e-02
-5.796349421143531799e-02
-3.070451505482196808e-02
-8.608242869377136230e-02
4.691218212246894836e-02
5.928815156221389771e-02
6.695333868265151978e-02
-2.031218819320201874e-02
-9.796342253684997559e-02
-9.822431020438671112e-03
