-6.201158165931701660e-01
-9.283331781625747681e-02
-3.553073406219482422e-01
-2.013674974441528320e-01
-1.886982470750808716e-01
-9.264945238828659058e-02
-2.989015579223632812e-01
-4.647508263587951660e-02
-5.493146181106567383e-02
-2.497246712446212769e-01
6.312163919210433960e-02
2.528048306703567505e-02
-9.755694121122360229e-02
-6.796717047691345215e-01
-2.788425683975219727e-01
-6.155242025852203369e-02
-4.223630204796791077e-02
-1.907814294099807739e-01
-7.206182181835174561e-02
7.403478026390075684e-02
-4.713150262832641602e-01
-9.483961015939712524e-02
-4.119706749916076660e-01
-4.904174804687500000e-01
-3.047967851161956787e-01
-1.098706796765327454e-01
-2.875982820987701416e-01
-1.462303847074508667e-01
-1.363746225833892822e-01
-1.285917162895202637e-01
-2.618997991085052490e-01
2.647881805896759033e-01
-2.106292545795440674e-01
7.926414906978607178e-02
-2.620080113410949707e-01
-6.077469587326049805e-01
-1.561296433210372925e-01
-4.045507013797760010e-01
-8.147164434194564819e-02
-1.383375227451324463e-01
-5.212959051132202148e-01
-3.564912825822830200e-02
-3.601517528295516968e-02
-1.670977622270584106e-01
-5.478115081787109375e-01
-5.612632036209106445e-01
-3.780234456062316895e-01
-2.056293487548828125e-01
-1.712627857923507690e-01
-8.169320970773696899e-02
-5.855529382824897766e-02
-9.361140429973602295e-02
-2.204043418169021606e-02
-9.097934514284133911e-02
-2.874005138874053955e-01
7.175502926111221313e-02
-2.402275502681732178e-01
-4.859883785247802734e-01
1.899990625679492950e-02
-4.411382675170898438e-01
-1.897937208414077759e-01
5.868038535118103027e-02
-3.138007968664169312e-02
-2.492122352123260498e-01
-1.572060585021972656e-01
-5.212101340293884277e-01
-5.224990099668502808e-02
-3.223895728588104248e-01
-1.972062885761260986e-01
-8.981315791606903076e-02
-1.665532030165195465e-02
-1.204077377915382385e-01
-3.173990249633789062e-01
-2.917669713497161865e-02
-2.007281727856025100e-05
-2.813083231449127197e-01
-8.995573520660400391e-01
1.481893658638000488e-01
-9.319571852684020996e-01
-8.942599594593048096e-02
-1.511734277009963989e-01
-6.128492951393127441e-01
-3.724143505096435547e-01
-2.051516920328140259e-01
-1.420689821243286133e-01
-1.706372499465942383e-01
-3.731055930256843567e-02
6.400106102228164673e-02
-2.166165113449096680e-01
-4.909125864505767822e-01
-3.749197721481323242e-01
-4.435178935527801514e-01
-2.082632333040237427e-01
-3.760535418987274170e-01
-4.458789825439453125e-01
-1.398335248231887817e-01
-1.095648705959320068e-01
-6.329177320003509521e-02
-3.677565604448318481e-02
-1.485372241586446762e-02
-3.283661305904388428e-01
-4.177363961935043335e-02
3.464811295270919800e-02
9.597462415695190430e-02
-3.897898197174072266e-01
-1.220893636345863342e-01
1.294794380664825439e-01
1.394232362508773804e-01
-7.484658807516098022e-02
-2.096626758575439453e-01
-1.778771579265594482e-01
-2.343012690544128418e-01
-2.124474048614501953e-01
2.920004166662693024e-02
-1.649974584579467773e-01
-1.811908334493637085e-01
-3.117434382438659668e-01
-2.240398526191711426e-02
-1.404732018709182739e-01
5.044673010706901550e-02
-1.447851657867431641e-01
-7.755030393600463867e-01
-4.511627554893493652e-01
-2.702824473381042480e-01
-1.844530254602432251e-01
-6.447439640760421753e-02
-2.091419845819473267e-01
-1.743969693779945374e-02
-1.702583022415637970e-02
-5.066442117094993591e-02
-2.077658474445343018e-02
-1.620687916874885559e-02
3.582622855901718140e-03
-7.404723018407821655e-02
-1.528205275535583496e-01
-3.600546345114707947e-02
-3.560429438948631287e-03
-1.590816676616668701e-01
9.988248348236083984e-03
-4.334490373730659485e-02
-3.928336501121520996e-02
-4.871935397386550903e-02
1.253598481416702271e-01
-7.417657971382141113e-02
-7.049958407878875732e-02
-6.707493681460618973e-03
1.610182784497737885e-02
-1.017709001898765564e-01
2.762919366359710693e-01
2.200805174652487040e-04
7.368051446974277496e-03
-1.113167125731706619e-02
2.635784074664115906e-02
-2.759124338626861572e-02
1.845759525895118713e-02
-3.018098771572113037e-01
-3.759775683283805847e-02
1.008381508290767670e-02
-3.246581926941871643e-02
-7.578428834676742554e-02
-1.492434591054916382e-01
2.854186892509460449e-01
4.112808499485254288e-03
1.585636436939239502e-01
-5.594407394528388977e-02
-1.523612439632415771e-01
-3.274708241224288940e-02
1.538798329420387745e-03
-8.437134325504302979e-02
-1.716697961091995239e-02
1.476227864623069763e-02
-4.885781183838844299e-02
-1.739985197782516479e-01
-3.254770115017890930e-02
-3.110895864665508270e-02
-2.237291261553764343e-02
-1.207170169800519943e-02
-2.872793003916740417e-02
-1.020157858729362488e-01
-4.343843460083007812e-02
-5.494571477174758911e-02
7.223996333777904510e-03
7.524910569190979004e-02
-6.010705139487981796e-03
1.183502748608589172e-02
2.840580046176910400e-02
1.412024907767772675e-02
-4.260905832052230835e-02
1.187795996665954590e-01
9.491243399679660797e-03
-5.959870293736457825e-02
-2.125526778399944305e-02
4.364293813705444336e-02
-2.375915497541427612e-01
-1.075564883649349213e-03
-1.043954957276582718e-02
-8.400204777717590332e-02
9.004802256822586060e-02
3.013295829296112061e-01
-2.349017374217510223e-02
1.347945332527160645e-01
-7.477554678916931152e-02
2.467268845066428185e-03
-1.695989631116390228e-02
-4.846931993961334229e-02
-7.850960246287286282e-04
2.676981966942548752e-03
-6.790432333946228027e-02
-6.238189339637756348e-02
-2.546732686460018158e-02
-5.464985966682434082e-02
-8.236110955476760864e-02
9.029429405927658081e-02
-6.700987461954355240e-03
1.245862059295177460e-02
-2.847292646765708923e-02
-4.823897778987884521e-02
-2.333387918770313263e-02
-5.277798511087894440e-03
4.884900990873575211e-03
-9.796153008937835693e-02
1.375012844800949097e-01
1.333033107221126556e-02
2.637492306530475616e-02
-6.316787004470825195e-02
2.213896065950393677e-01
-1.944459415972232819e-02
-2.177382586523890495e-03
-2.856337130069732666e-01
1.438981443643569946e-01
2.562422305345535278e-02
1.060607563704252243e-02
1.601554267108440399e-02
-4.852354153990745544e-02
-8.018410205841064453e-02
3.670638799667358398e-02
-9.062428958714008331e-03
-9.005689620971679688e-02
-3.353184554725885391e-03
1.524919569492340088e-01
-2.367680892348289490e-03
-1.225556656718254089e-01
-6.265486031770706177e-02
-5.889930948615074158e-02
-5.205402616411447525e-03
-6.117860972881317139e-02
-4.111512005329132080e-02
-4.446947574615478516e-02
-7.213091105222702026e-02
-2.203700505197048187e-02
-1.944536902010440826e-02
1.923007704317569733e-02
-4.685058444738388062e-02
-5.812284722924232483e-02
-2.520023379474878311e-03
-6.149047985672950745e-02
1.355777084827423096e-01
-8.387286216020584106e-02
9.236735105514526367e-02
1.356549113988876343e-01
-6.283273547887802124e-02
5.174469202756881714e-03
-9.066516906023025513e-02
-9.019848704338073730e-02
2.200130000710487366e-02
1.119782254099845886e-01
4.083125852048397064e-03
5.852507054805755615e-02
2.874782681465148926e-01
-5.731186643242835999e-02
-1.150286290794610977e-02
-8.636177517473697662e-03
5.577673763036727905e-02
-9.033892303705215454e-02
-2.735562808811664581e-02
5.335548520088195801e-01
8.760838210582733154e-02
-1.186492480337619781e-02
-3.185192868113517761e-02
-7.316524628549814224e-03
-1.474515348672866821e-02
-5.083148553967475891e-02
9.474862366914749146e-03
1.532161422073841095e-02
-6.148738320916891098e-03
1.818884909152984619e-02
1.156515325419604778e-03
-2.860441617667675018e-02
-3.704338148236274719e-02
1.866681850515305996e-04
9.847330302000045776e-02
-6.643595173954963684e-03
-1.796932891011238098e-02
1.176666934043169022e-02
3.004470840096473694e-03
-3.513272479176521301e-02
1.755320429801940918e-01
-1.256620138883590698e-01
-3.535624966025352478e-02
-3.100958652794361115e-02
-3.979676589369773865e-02
1.348304934799671173e-02
-3.076208382844924927e-02
2.746784128248691559e-02
-8.970081806182861328e-02
1.704468578100204468e-02
-7.202821969985961914e-02
-3.601764515042304993e-02
-9.277087636291980743e-03
-2.766005992889404297e-01
-5.153061076998710632e-02
-2.049787901341915131e-02
4.943647608160972595e-02
-2.516406588256359100e-02
-3.690877184271812439e-02
2.330116461962461472e-03
4.860696382820606232e-03
1.517523378133773804e-01
8.622136712074279785e-02
-3.543729707598686218e-02
1.091164723038673401e-01
-4.130783956497907639e-03
9.286383166909217834e-03
6.373384967446327209e-03
-1.872715167701244354e-02
-3.224164247512817383e-02
-5.085314437747001648e-02
2.528980560600757599e-02
-5.169007554650306702e-02
3.028212580829858780e-03
-2.313495986163616180e-02
2.087899744510650635e-01
-8.606245392002165318e-04
-1.269662529230117798e-01
-3.072094172239303589e-02
-3.144837915897369385e-03
2.545904219150543213e-01
-7.538314908742904663e-02
3.500835737213492393e-03
1.294942647218704224e-01
2.987072467803955078e-01
-5.726110190153121948e-02
-1.170439273118972778e-02
-1.566004902124404907e-01
-2.401040308177471161e-02
-3.532116487622261047e-02
-1.079071611166000366e-01
4.464043304324150085e-02
-5.265725776553153992e-02
1.579330414533615112e-01
2.220341376960277557e-02
-2.269787155091762543e-02
-7.185709476470947266e-02
-2.023206092417240143e-02
2.271613925695419312e-01
-3.991807252168655396e-02
2.417362332344055176e-01
1.428376534022390842e-03
-1.891371980309486389e-02
-1.770768165588378906e-01
-2.390405721962451935e-02
-6.733450293540954590e-02
5.156760662794113159e-02
-6.539205461740493774e-02
-1.971291191875934601e-02
-1.471872720867395401e-02
-2.131733112037181854e-02
-3.013775125145912170e-02
1.184660792350769043e-01
-4.831809923052787781e-02
1.765837967395782471e-01
-2.621283940970897675e-02
4.541793465614318848e-02
3.316177427768707275e-01
-1.147515624761581421e-01
8.152446150779724121e-02
1.975224353373050690e-02
-2.615825738757848740e-03
1.584375053644180298e-01
1.685408502817153931e-02
-2.880710065364837646e-01
-6.491729617118835449e-02
-5.403587967157363892e-02
2.990124523639678955e-01
8.225073665380477905e-02
-2.408926784992218018e-01
-1.419311109930276871e-02
-1.498109009116888046e-02
7.369205355644226074e-02
3.867474570870399475e-02
6.692185997962951660e-03
-4.172837734222412109e-02
-2.732590436935424805e-01
-2.175319641828536987e-01
-1.508971601724624634e-01
3.707605004310607910e-01
4.986517131328582764e-02
4.395065456628799438e-02
-3.207484632730484009e-02
4.517477154731750488e-01
2.406624108552932739e-01
2.854598462581634521e-01
-2.048329710960388184e-01
-6.305778399109840393e-03
-7.876396924257278442e-02
2.899522483348846436e-01
2.813000679016113281e-01
-3.421639651060104370e-02
-7.408057153224945068e-02
1.288018375635147095e-01
-1.141958171501755714e-03
1.516307704150676727e-03
7.980978488922119141e-02
1.196068301796913147e-01
-9.892930835485458374e-02
-4.714370965957641602e-01
-2.636685967445373535e-01
2.362965494394302368e-01
2.302108891308307648e-02
-1.042240113019943237e-01
-2.550797462463378906e-01
-5.117060244083404541e-02
-5.231465213000774384e-03
3.065527081489562988e-01
-6.949424743652343750e-02
4.451162815093994141e-01
-8.563592284917831421e-02
-1.214016079902648926e-01
-8.047164231538772583e-02
-1.735267788171768188e-01
-4.185684397816658020e-02
-1.386546939611434937e-01
-1.497592870146036148e-02
-4.358256980776786804e-02
-2.607333362102508545e-01
-9.406778961420059204e-02
-7.846824079751968384e-02
-4.721272885799407959e-01
2.149269133806228638e-01
-9.206752479076385498e-02
-3.511132001876831055e-01
-2.609036862850189209e-01
3.211423158645629883e-01
4.478582441806793213e-01
3.494575619697570801e-01
-2.658307850360870361e-01
-1.782416999340057373e-01
-3.065924532711505890e-02
-2.540442720055580139e-02
-1.923735998570919037e-02
-7.209862768650054932e-02
3.719046413898468018e-01
-2.522689700126647949e-01
-5.669059976935386658e-02
-8.255886286497116089e-02
-4.697438478469848633e-01
1.554900556802749634e-01
1.207287423312664032e-02
4.378638789057731628e-02
3.295964002609252930e-02
4.121720790863037109e-03
-2.130146138370037079e-02
-6.859357655048370361e-02
1.378930211067199707e-01
-1.962225884199142456e-01
-1.954371482133865356e-01
-2.858906984329223633e-01
-6.112176459282636642e-03
-6.662168353796005249e-02
-2.938667312264442444e-02
5.870173498988151550e-02
-1.692371219396591187e-01
-4.171490669250488281e-01
-9.478726983070373535e-02
-5.687836185097694397e-02
-6.341671198606491089e-02
-1.886839233338832855e-02
2.025132998824119568e-02
9.710725396871566772e-03
-3.953543305397033691e-01
-2.653792202472686768e-01
-2.458387762308120728e-01
-1.770952492952346802e-01
-1.820902079343795776e-01
9.605350904166698456e-03
-4.979597032070159912e-02
-8.645073324441909790e-02
-4.157621040940284729e-02
-1.037577465176582336e-01
1.571602933108806610e-02
3.323075920343399048e-02
-1.197949238121509552e-02
2.935047447681427002e-01
-6.215715408325195312e-02
-4.944584891200065613e-02
-8.974217623472213745e-02
3.743185698986053467e-01
-1.499000787734985352e-01
2.970398366451263428e-01
-2.117870002985000610e-01
-1.547541003674268723e-02
2.202724516391754150e-01
-1.913095563650131226e-01
-1.284390967339277267e-02
-2.586071938276290894e-02
-1.385913938283920288e-01
-2.613616175949573517e-02
-9.002831578254699707e-02
1.816638112068176270e-01
-3.518039360642433167e-02
1.018992215394973755e-01
-5.571543052792549133e-02
-1.491397470235824585e-01
2.992992103099822998e-01
6.847832202911376953e-01
3.016931116580963135e-01
-1.485328525304794312e-01
1.615711748600006104e-01
-1.531470417976379395e-01
-6.937628984451293945e-01
4.265302121639251709e-01
1.999579742550849915e-02
1.924115717411041260e-01
1.065215766429901123e-01
1.299751602346077561e-06
-2.687315046787261963e-01
6.267062574625015259e-02
-1.748063862323760986e-01
3.619362711906433105e-01
-1.085192412137985229e-01
1.534251719713211060e-01
6.012684106826782227e-01
-1.812627464532852173e-01
-6.969551742076873779e-02
9.011816233396530151e-02
-2.031932920217514038e-01
3.566321432590484619e-01
-2.186906524002552032e-02
-6.816538572311401367e-01
7.840293459594249725e-03
-4.702803492546081543e-02
3.740529417991638184e-01
4.743115603923797607e-01
-9.637641906738281250e-02
-7.930789142847061157e-02
-8.790757507085800171e-02
-1.614867001771926880e-01
5.000592470169067383e-01
5.325698852539062500e-02
2.121973931789398193e-01
-9.524080157279968262e-02
-8.893994614481925964e-03
-1.013956516981124878e-01
8.339932188391685486e-03
3.836969733238220215e-01
-1.900051832199096680e-01
-1.882923394441604614e-01
1.864556968212127686e-02
-1.467902362346649170e-01
-3.388493955135345459e-01
1.635380983352661133e-01
-1.972081065177917480e-01
7.453973591327667236e-02
-1.257320493459701538e-01
-2.053958177566528320e-01
-8.800333738327026367e-02
-1.991408318281173706e-01
-5.097076296806335449e-01
3.711689114570617676e-01
1.061124578118324280e-01
-5.293394625186920166e-02
-1.239519268274307251e-01
4.042806625366210938e-01
1.696240715682506561e-02
2.634697258472442627e-01
-2.075517326593399048e-01
-1.178878620266914368e-01
-2.757579982280731201e-01
2.894740402698516846e-01
2.204886078834533691e-01
-3.470212221145629883e-02
-2.988487184047698975e-01
-3.795487061142921448e-02
-1.652279645204544067e-01
-2.366291135549545288e-01
2.823565304279327393e-01
1.928549446165561676e-02
-2.578982412815093994e-01
-2.414788864552974701e-02
2.843545973300933838e-01
1.461838036775588989e-01
3.887647390365600586e-01
-9.004207327961921692e-03
-4.345302879810333252e-01
-6.156216934323310852e-02
-1.383022516965866089e-01
-3.912397846579551697e-02
5.137589573860168457e-01
-3.799304738640785217e-02
-3.176657482981681824e-02
-1.144652068614959717e-01
-1.482508331537246704e-01
2.960535585880279541e-01
-2.227126061916351318e-02
-1.966896951198577881e-01
-2.969784662127494812e-03
-1.507476717233657837e-01
-3.978051990270614624e-02
3.182477056980133057e-01
-2.557187154889106750e-02
-1.893616169691085815e-01
-8.056636899709701538e-03
3.384414911270141602e-01
-2.855742871761322021e-01
3.906161785125732422e-01
-2.576943635940551758e-01
5.143957138061523438e-01
1.145474053919315338e-02
5.661090463399887085e-02
-4.903091490268707275e-02
4.405688121914863586e-02
1.972047425806522369e-02
4.362578988075256348e-01
-3.512556105852127075e-02
3.331946581602096558e-02
3.510900139808654785e-01
4.060977697372436523e-01
4.013484716415405273e-01
1.685429662466049194e-01
2.426168471574783325e-01
1.292011584155261517e-03
3.276512399315834045e-02
-3.347552418708801270e-01
-1.623029410839080811e-01
-2.951187491416931152e-01
-3.402191027998924255e-02
-2.453662306070327759e-01
3.644152581691741943e-01
-2.431635409593582153e-01
9.546800516545772552e-03
-3.205793499946594238e-01
3.054637312889099121e-01
-1.524452716112136841e-01
5.368136335164308548e-03
-3.029486238956451416e-01
-3.080256655812263489e-02
6.273094099014997482e-03
8.099418878555297852e-02
-3.530026413500308990e-03
-4.639706015586853027e-02
2.848699875175952911e-02
3.484933078289031982e-01
-3.004789650440216064e-01
-5.164038389921188354e-02
-8.317793160676956177e-02
-3.426321744918823242e-01
-1.126775294542312622e-01
-2.763758897781372070e-01
-3.203426674008369446e-02
-1.367460191249847412e-01
-3.321709111332893372e-02
1.144160255789756775e-01
-2.699099183082580566e-01
3.179105818271636963e-01
-1.186874881386756897e-02
3.105557858943939209e-01
-3.839456662535667419e-02
-5.590973421931266785e-03
3.796420097351074219e-01
-2.543095946311950684e-01
-3.450683876872062683e-02
-6.421294808387756348e-02
-2.375686466693878174e-01
1.472405623644590378e-02
3.409505486488342285e-01
-3.488513231277465820e-01
3.743149638175964355e-01
-8.521234849467873573e-04
-3.096534013748168945e-01
2.073828876018524170e-01
-2.359913848340511322e-02
-2.334832549095153809e-01
-3.067434951663017273e-02
9.626063704490661621e-02
-6.901517510414123535e-02
3.376749157905578613e-02
-9.364745765924453735e-02
-2.642194628715515137e-01
-8.095091581344604492e-02
3.604886233806610107e-01
2.628754079341888428e-02
-1.363244503736495972e-01
-7.755959779024124146e-02
1.083679124712944031e-01
-1.762090474367141724e-01
1.524840947240591049e-03
3.095124959945678711e-01
-5.613407865166664124e-02
-3.876064717769622803e-02
-2.915906906127929688e-01
3.232108652591705322e-01
-5.389932543039321899e-03
-1.776509881019592285e-01
-8.425274491310119629e-02
-1.206425726413726807e-01
-1.334392577409744263e-01
-1.627521067857742310e-01
1.621242016553878784e-01
-3.802304342389106750e-02
-5.701325088739395142e-02
-2.545399963855743408e-01
-3.503068163990974426e-02
-2.826467389240860939e-03
-1.392128169536590576e-01
3.547666370868682861e-01
-1.817989945411682129e-01
-5.401039123535156250e-01
-3.313308209180831909e-02
-1.320078819990158081e-01
-1.800602823495864868e-01
-3.506619632244110107e-01
-1.253710985183715820e-01
2.874245047569274902e-01
-1.613065600395202637e-01
2.702322416007518768e-02
7.476222515106201172e-02
2.251699194312095642e-02
-2.383815124630928040e-02
-9.919229149818420410e-02
-2.464857101440429688e-01
-1.992173790931701660e-01
-4.874717444181442261e-02
1.455297023057937622e-01
-2.065856941044330597e-02
-1.383887976408004761e-02
-9.930217266082763672e-02
-1.862844973802566528e-01
-5.733020976185798645e-02
-1.347486674785614014e-02
5.497815608978271484e-01
3.031564652919769287e-01
-3.150529414415359497e-02
-6.674333126284182072e-04
-3.262387216091156006e-01
4.313210025429725647e-02
-6.284691859036684036e-03
2.824989855289459229e-01
-1.207823902368545532e-01
-9.682870004326105118e-04
2.000856911763548851e-03
-2.273838408291339874e-02
-8.305990695953369141e-02
-3.192167580127716064e-01
-6.245777383446693420e-02
-9.093677252531051636e-02
-5.318997427821159363e-02
2.478219196200370789e-02
-1.958970725536346436e-02
7.899512350559234619e-02
-6.517034769058227539e-02
-1.058479957282543182e-02
-5.296636745333671570e-02
-4.494607821106910706e-02
2.768242955207824707e-01
-2.610585093498229980e-02
2.906049194280058146e-04
6.627898197621107101e-03
-4.243537411093711853e-02
-1.994897723197937012e-01
2.333851903676986694e-01
-4.201363921165466309e-01
4.293487071990966797e-01
